1.031199220946146244e+00 4.114088734676046855e-01 1.488684732469952587e-01 -9.886026646795739170e-01 7.489557521134194706e-01 9.114258624400479736e-01 -1.025176564020323200e+00 1.377150299244125797e+00 -6.945118358661747093e-01 -5.216982101091233170e-01 -2.245321845936546268e+00 1.339954792512240145e-01 -1.436818167910905109e+00 2.023339395809691688e+00 4.701958003714087897e-01 -9.132383272161990195e-01 7.351521763107459195e-01 -1.262789460705145750e+00 -5.458827142613391636e-01 -6.120706764061256688e-01 -1.324312077680482591e-01 1.387006934619929577e-01 -6.070428425789401450e-01 -9.540482033245228921e-01 -1.934141034437095175e-01 8.067935291850060198e-01 -5.647644216063344436e-01 1.320253691151663245e-01 5.712000055371074803e-01 -8.560658379499199722e-01 -1.835581678102528924e+00 -2.093972909538392435e-01 6.292733101663057216e-01 7.670197504235064523e-01 2.199559917451519853e-01 1.397216634060519935e-01 -1.323774000799502915e+00 -7.301216903429514904e-01 -9.931481957547153572e-01 -5.968855433170834335e-01 -1.224211052530305155e+00 -1.547200375669374184e-01 -7.184697605892644834e-01 1.729888263982347407e+00 -1.871505998767715839e+00 4.937889056131557208e-02 3.619034290508948426e-01 -1.604067131015617376e-01 -2.059583009414055477e-01 4.075914150320859575e-01 1.230350000251360543e+00 4.171354876458601701e-01 1.059428676120714785e+00 -6.908091983455630913e-01 1.211977242200206639e+00 2.078239451008349892e-01 -4.128564093096922516e-01 1.093518266027808938e-01 -4.754457673188367539e-01 1.235389804367705624e+00 9.043047026701270252e-02 -6.096124353511663818e-01 8.605427781116404828e-01 -4.314366906368777288e-01 1.052062660474374134e+00 3.801901492978929653e-01 1.347482971280204778e+00 2.025765622347141526e-01 1.090674812212472533e+00 -9.011238690299804288e-01 -1.366067030457316811e+00 -3.057664852981641368e-01 -3.450843821178566362e-01 7.461774115212511660e-01 -3.383679488661373025e-02 8.896849511136619704e-01 -2.207778880859352089e-01 3.214216265680792661e-01 -5.785760304372076224e-01 -1.305135479109942098e+00 -9.411490582541983674e-01 -2.540032006580778545e-01 2.092664032172855126e-01 -1.212821352796843666e+00 -4.504848241599009318e-01 1.300459665902972572e+00 -7.048805903410877427e-01 -1.385606184832837595e+00 7.043121417900840564e-01 7.616867182407678349e-01 -3.238514629475791051e-01 -8.048346525686438380e-01 6.312708167257866654e-01 -6.247600388084623146e-01 3.907129363022183721e-01 -9.779897395709482577e-01 4.177130504150496360e-01 1.311727859037430610e+00 6.991049286906395599e-01 4.779671265297227856e-01
1.963425167243552094e-01 1.429723911095619027e+00 -4.575489791407211793e-01 -1.597617115052585968e+00 7.512587288898728843e-01 -1.063341632571892514e+00 -1.293607264975339122e-01 8.141798857731790129e-01 -4.542485758574316135e-01 -1.070957693918026532e+00 -8.150520562318078754e-01 -1.306785337630188781e+00 3.661920030408805787e-02 -1.494782913232946875e+00 -7.990216704559413019e-01 4.387383803477264421e-01 -9.672534579224237872e-01 1.030085589398705093e+00 5.389405427794655701e-01 1.666752251035152455e+00 9.821454085220035490e-02 -1.473851298791138964e+00 -7.385632568698775602e-01 -1.346833998501772989e+00 5.286276796513419418e-01 -1.145666858905292074e+00 8.295495054921001588e-01 -1.943805991701955393e-01 1.760807610653842170e+00 7.362846461517180696e-01 -6.620720971835702962e-01 1.333345303209124033e+00 -1.085366975290920077e+00 1.355218078691054207e-01 -9.209256523641522474e-01 -1.720352842013908701e+00 -7.927354724606369141e-01 1.553458845202810634e+00 2.271862173416906994e-01 1.171264990940191764e+00 1.206562344053083935e+00 2.808067876979530308e-01 -3.346504360318448001e-01 5.061622627013832032e-01 -6.492841113080574100e-01 1.068421275674951820e+00 -4.444167529098896341e-01 -3.453353969687188441e-01 1.109847742338200050e+00 -2.201158469865220069e-01 -5.206887059680584962e-01 5.862501071108919826e-01 -3.476892662427988334e-01 3.560457890780879264e-01 -2.156959583579203699e+00 -2.381204182113894410e-02 7.366046912019135195e-01 2.815231948704808862e-01 -4.037687112716321636e-01 -1.464923326848940888e-01 4.191626806305350228e-01 1.590427203412375368e-01 7.944426678648921492e-01 -2.339868637352211789e-01 3.616664360394896138e-01 -1.202699888538399264e+00 -6.277978111406049555e-01 -1.523547502360477646e+00 -6.918999086287944134e-02 2.552487094121629885e-01 3.373736364791519171e-01 6.037249170140445154e-01 5.680899682794312566e-01 3.473675289589944204e-01 -7.421966950562410847e-01 2.485740558250898735e-01 -7.521080915068907580e-02 1.815513444844107649e-01 -8.315828942278009617e-01 -9.523104523233121288e-01 -9.169692404896037097e-01 -6.487544311094099736e-02 5.108853897922631671e-01 -4.505010762375465383e-01 -4.777973385872922862e-01 1.229747118398390349e+00 1.301563671006462197e+00 5.892312268630326422e-01 -1.394432885819669288e+00 4.499035837904583057e-01 2.406729191223547781e-01 4.931794793732561244e-01 -1.073688920115521750e+00 1.295337652421862495e+00 7.757221680123214114e-01 -6.171036077216147941e-02 -1.543264068576248871e+00 -4.531437150204454811e-01 7.525335768104717271e-01 1.583786871253502593e+00
2.096341832143317485e-01 9.267470581864722945e-01 1.752683064543625102e+00 -5.218992049190344928e-02 -5.681714085309768070e-01 -2.658851725788582421e-01 5.020055188103655919e-01 1.337428498765836693e+00 1.318557650902006106e-01 6.795614570681179911e-01 6.062355906734684385e-02 -1.224808923794623361e+00 -5.035055206112509785e-01 4.982623862406815318e-01 -4.415473339146235854e-01 -1.310790350988755015e-01 9.530910308865675473e-01 7.708566410110510025e-01 -2.142797763185045223e+00 1.180675610474721138e+00 -9.626704363057826397e-01 4.847158196181003409e-01 -1.194356079970513435e-01 9.998229816642203449e-01 -4.046800579807677822e-01 3.209285755834874188e-01 -2.047010893728187231e+00 -1.218250709457221026e+00 -7.919044574976652484e-01 -7.807261691140583437e-01 1.301491223369921624e+00 -1.398321878145823316e+00 3.227244951803311945e-01 9.175456764785839825e-01 2.080061250168991460e+00 1.788563150822153891e-01 -3.067314131513147399e-02 7.337066984224765998e-02 -1.148115475162538646e+00 -3.921702159219290218e-01 -1.140828114986350394e+00 -4.530059157765820577e-01 -1.147886623718258198e-01 -7.752825412926205306e-01 -2.546727954960114615e-01 5.710671057420982910e-01 4.554935385619911514e-01 -4.412147014298281045e-01 3.640609631233637233e-01 -9.771908682489639508e-01 6.808294287184403215e-01 3.280229836403114052e-01 -7.466966352268709223e-03 -3.092699687411576415e-01 1.147759665191767642e-01 1.213993900252354541e+00 1.017873904275831354e+00 -5.968054405170871574e-02 -2.200528179943790075e-01 9.476507694111687696e-01 -1.954221267608632129e+00 1.684043492798902975e+00 -5.949590779426989773e-01 -1.532769263534449644e+00 -4.854198496239138794e-01 2.111825289284495089e+00 1.778955680911435078e+00 -7.926131439712807980e-01 2.462317657700311968e-01 4.022212364516684624e-01 1.217434155587570510e+00 -9.880456143130692537e-01 -3.416104110315509312e-01 1.870034694619085780e+00 -1.385881802240295668e+00 5.697372545276518929e-01 6.268859499019602266e-01 -3.202885118648549079e-02 -1.818102683989201163e-01 2.789565120153940647e-01 7.240773820607052658e-01 -5.628556641943180949e-01 1.262967681091093253e+00 -4.302462672903000218e-01 -4.347024689724801050e-01 -1.292850308514421398e+00 -6.362799863932911970e-01 -1.394458401177604001e+00 1.697903783511271747e-01 1.055211104662096666e+00 1.241240006835704346e+00 5.457644968599303370e-01 -1.525926084884549061e-02 -3.314342029832981207e-01 -9.812471556656624516e-01 8.434280175414157199e-01 6.595190080302177904e-01 -7.593448224469904195e-01 7.192444070245146426e-01 -9.360047602521130994e-01
-1.855097050315103191e+00 -9.220891100591281919e-01 -1.566443328725619644e+00 -1.255720138551787712e-01 3.271398226959396638e-01 1.446369065469111703e+00 1.163876010924720823e-02 1.018073108436012175e+00 -2.178373081668224298e+00 -2.457229852274731841e-01 6.224008022973688270e-01 -2.811473350054241593e-01 -1.640745800736998383e+00 5.360019884775789611e-01 1.738397381861645385e+00 1.094437785717626621e+00 -5.849346956290939897e-02 1.501603000938884103e+00 2.614885846558018812e-01 -5.711286416467967753e-01 4.052964102132990964e-01 -3.492322919785655344e-01 4.917849804110577261e-01 2.619388681900998161e-01 1.105283668343605141e-01 -2.531255982750777456e-01 -1.684444256727535005e-01 -1.564648418894882154e+00 5.906924621987499346e-01 -1.935544731964357057e-01 6.868241279606631666e-01 9.628495857126316837e-01 1.094976290629007920e+00 -3.496033124146454840e-01 8.248815395100854431e-02 1.478913477169607082e+00 6.692093865957612353e-01 1.594788825495161211e+00 1.698766176714116449e+00 7.025262231507286570e-01 -3.656867579775373023e-01 -1.092729839134273462e+00 -2.397582751372164672e-02 3.122303901624989830e-01 -2.167633902722663763e-01 -1.087660144925926220e+00 7.992667593558605565e-01 -6.353180176896598697e-02 -9.909776691384935762e-03 1.994489383348477141e+00 -2.137618587645426504e-01 -8.286465105776320561e-01 -8.182062897718852534e-01 -2.802844597522424763e+00 -1.301813212352249394e-01 3.088401530213495949e-01 -2.055412039747178121e-01 -1.294323432277873387e+00 3.064567482406423959e-01 -1.098855931811008713e+00 1.233840743419777342e+00 1.043980588994097625e+00 -8.187041600526361318e-01 -7.012751782085216434e-02 4.037062977745344838e-01 -9.113454272087372077e-02 -4.949700532605357806e-01 7.386356398659719158e-01 2.539255021250390598e+00 1.237661840607454211e+00 -2.148727244052383301e-01 -4.022715300256852755e-01 -8.256297452756595767e-01 1.666144697439536859e+00 2.329930386476295023e+00 2.335469316443703036e+00 -1.427073253398054131e+00 9.576685626421159725e-01 8.479438456379758682e-01 5.003858895197434986e-01 -2.307361113221571003e-01 -8.410125149895261720e-02 7.322613998052989182e-01 2.054474831580109795e-01 4.590562955151257230e-01 -1.584042324111259170e-01 1.135614946352628413e-01 1.463937535705677861e+00 -2.739969874404206696e-01 2.543970348518221902e-01 -2.629014398061828572e-01 -4.010652065598079297e-01 -5.284222509873279794e-01 -3.559813582896145245e-01 -1.276255689169547347e+00 -1.032255858528159598e+00 -2.982727377288688642e-01 6.119445125725374579e-01 4.469982208940793122e-01 -1.624000443342996924e-01
2.135753036432261609e-01 -6.026339978012477117e-01 4.355238338324126657e-01 9.878741567811276658e-01 7.389339173027058560e-01 3.692665774800272388e-02 -4.098115257780524101e-01 5.693279906604461482e-01 -5.585405411357454719e-01 -1.504195440211121282e-01 -1.270026370233577451e+00 4.727306645773013960e-01 1.062790907148419173e+00 7.069474167750832150e-01 7.234910583446749754e-01 -1.960401806508157874e+00 1.481985012739919227e+00 -1.479747075873144302e-01 -9.952445929568233263e-01 -6.996039263865858615e-01 1.436543743442511289e-01 2.233624723718255142e-02 -1.167207469929542746e-01 -1.158234877468530044e+00 -1.327570169766543628e+00 -1.430544381972060242e+00 -3.235632866415680264e-01 2.850957179881693504e-01 7.312255251027994785e-01 -1.284481365751463544e+00 9.033355552431139301e-01 -2.732572178744963054e-01 -1.871745815100568366e-01 -9.794829292479291238e-01 1.643132184857438061e+00 -5.289594817871595689e-01 1.246323999787414538e-01 -1.176625495829551893e+00 -3.103955271741202782e-01 -2.918424538907289922e-01 5.557866398106722783e-02 1.364764783686775562e+00 -7.764478211796592699e-01 7.123841849452269837e-02 -5.206037475300548945e-01 6.715058872562713610e-01 4.135826998653442388e-01 -8.283920200907486375e-01 9.514426046415150884e-01 4.429626170177887179e-01 1.757972369971569471e+00 -1.910881338527121498e+00 -5.186448323179167208e-03 -9.576660232340660217e-01 -7.623414284125984430e-01 1.580911595320559693e+00 -2.354358674830021592e+00 2.166190973406929565e-01 9.051253241632737367e-01 9.820901381361926141e-01 -8.343605295495143404e-01 5.161054505167447098e-02 -3.943634107180151588e-02 8.053536306303612502e-01 -8.392791075427536995e-01 1.947649095263423558e+00 1.766511590638411677e+00 9.387604672622416047e-01 -1.434642320946962979e+00 5.562573392880711953e-01 -1.280365795749630831e+00 -1.048240369086601342e+00 8.092074704126794860e-01 -1.335519734717475204e-01 1.496200533295825030e+00 -8.682341222522503843e-01 -2.370305746555143311e-01 -5.436107884332890272e-01 1.027189792147011671e+00 -5.782059779692776402e-01 1.703035950214315086e+00 8.056889914488013504e-01 -1.040850977096417829e+00 -5.734537363283790379e-01 -1.970121615418036209e-01 5.648317911819477066e-01 3.593192598511665836e-01 -2.709001107659143037e-01 9.247110903175387309e-01 -1.524139542599465935e+00 -8.571790842233478758e-01 -9.853269637662922520e-01 1.115151774689668418e+00 6.581419850232417268e-01 4.468490026318527319e-01 6.363168414720836719e-01 1.558090968867955617e+00 -4.290960529214983832e-01 -1.256000931384304131e+00 8.833720109949867449e-01
2.851330569228344158e-01 7.183115809319526868e-01 2.879772653227218315e-01 -2.889997825733785497e-01 -1.027690597757849211e+00 -5.151930978333039146e-01 -6.127779463074930488e-01 1.716218559261252219e+00 7.188998947897107250e-01 -9.316758364487612853e-01 3.076713560831590907e-02 -3.668743662312256015e-01 -7.960432393017115027e-01 2.250901873730567701e-02 4.217829892921985402e-01 1.160104326611472558e+00 -4.553642406153140532e-01 -6.574051662076727531e-01 1.319923010056630819e+00 -3.231509478949494141e-01 -7.253026919276149842e-01 1.822941625934550558e+00 7.043006666138668104e-01 -5.252808366498715742e-01 -1.911968639519414870e+00 4.452922458808183936e-01 -6.704839097939477854e-01 7.748044785987653338e-01 1.293073453766540259e+00 1.396426672735938235e+00 -8.710752450124386037e-01 2.063449060822767078e-01 -1.098206055898774541e-01 -6.354809125705460637e-01 -3.565421206308994062e-01 -1.038783804592011695e+00 9.431785146956468413e-01 5.383492159149396716e-01 -6.282797453074030480e-01 3.384625204509935648e-01 -4.411418626583359925e-01 4.037895207167786493e-01 -1.114289247077739242e+00 -1.138398956869160761e-01 -5.840998390234850568e-01 2.546537078354728090e-01 1.161033182461543301e-01 -3.419746673910985940e-02 1.519785135246934482e+00 9.027767717610390985e-01 1.195430654140793747e+00 2.403870253589569739e+00 -1.359662550313500029e+00 -1.292462872908709537e+00 7.689436517626672130e-01 6.111652162496584717e-01 2.461589088476286324e+00 5.253247589234156800e-01 -1.002220351028536571e+00 -5.899451219612261710e-01 3.061520994639390647e-01 8.742038331995655165e-02 1.429545767743035656e+00 -1.336794006378097199e+00 -6.272105185826901685e-01 -1.097820459764475842e+00 1.980298436456449318e+00 9.033660115996542395e-01 1.429610824271513758e+00 1.471016165321274161e-01 -4.862600111961624116e-01 -2.543044111437238741e-01 -7.264853984174698964e-02 7.787778789808612601e-01 1.360952120012057787e+00 8.212455384175729178e-02 1.245475199265654753e+00 1.795832197301470146e+00 5.451646126320673913e-01 -1.688434869727365895e+00 -1.648553876648991112e+00 1.100912638329808679e+00 -2.297531352095651069e+00 3.851034819013140487e-01 -1.539653351750305266e+00 7.900765738704422780e-01 -2.244733854367314319e+00 -8.466995693661208411e-02 -3.101963960791084274e-01 2.280408820979439088e+00 -1.471124773325150903e+00 1.662218086567952779e+00 1.726440528576727473e+00 -7.568027972662069169e-01 8.406491143009628964e-01 -8.317807296568456854e-01 6.167570333936085447e-01 1.870167933005520977e+00 -4.185442249200557741e-02 -1.141008939850387538e+00
-7.631940552910136955e-01 -2.240915773650482001e-01 -8.148823432393909050e-01 -7.073788578900080948e-01 5.275059430136272987e-01 -2.249069637148976286e-01 -7.528519794336282489e-01 -4.250234916992470802e-01 1.744105468953949245e+00 -2.920493433868349142e-01 -4.321761035216325486e-01 -1.013934283755432153e+00 6.072705983337246538e-01 -4.756606922479369448e-01 -5.963341696237580702e-01 -3.451949210345114372e-01 6.778355370576849559e-01 1.358995772638634802e+00 -1.309374966770936899e+00 -4.253655969190166530e-01 1.531316356576816418e+00 1.211244343518807387e+00 -8.370539940572230275e-01 1.294162835123670918e+00 -3.353065624371692754e-01 5.328195040324317233e-01 -1.529613372049044573e+00 1.294572302717391876e+00 9.270975859596282120e-01 1.580419852806022263e+00 8.749894770506484454e-01 -1.262901985313992892e+00 -1.994389866478445683e-01 7.361989199432066033e-02 -3.947282788417829646e-01 -1.033683284916429912e+00 4.624553994303458593e-01 7.351092164939064810e-01 -6.356324393498322678e-01 1.366921636027978559e+00 5.032985075977641776e-01 1.132716375328824271e-01 -1.613591916015755912e+00 -2.459576518519077659e+00 1.516676818785876790e+00 4.541529397611062668e-01 -1.477913147368122404e+00 -7.651055386653521362e-02 -1.020400014843920511e+00 -1.642442041468099356e+00 -1.034571091672657595e+00 1.007195358957490017e+00 5.325050098820838240e-01 6.891853033255960215e-01 -5.765734718570670880e-01 4.569637483774373621e-01 -3.982821048910707429e-01 4.789244817865418447e-01 9.833455857487060081e-01 -1.763393737915564530e-01 -5.725937062115725729e-01 -6.565643432160384041e-01 -3.563220974267883312e-01 -1.444407130992027222e+00 1.737325311342388545e+00 7.388151388903038130e-01 -8.362103549279856773e-01 8.900131034425470267e-01 -3.651469176668455940e-01 -9.208551033966889954e-02 1.604839444376587432e+00 4.822025708502257479e-02 -8.346233723076035282e-01 -2.474730488113827676e+00 4.242102082113348160e-01 -3.951872236413918049e-01 -8.682958445328970987e-01 -1.019933441748284708e-01 -3.974779572609913880e-01 2.104649018000178395e-01 1.275168779318567591e-01 4.127273421387813168e-01 -1.583335616546312163e+00 -9.940785169205458294e-01 1.065655020141525355e+00 3.977548731635955903e-01 9.728389916192153875e-01 -3.380120329472082741e-01 -4.918191949097516780e-01 9.947692660383629093e-01 1.069298404293459015e+00 -1.221843045684935625e+00 9.028432299936596239e-01 -4.421826208026501392e-01 -3.948206698620775335e-01 1.473339196026092202e-01 -3.350954879883495385e-01 1.209613094029961422e+00 2.721468151275162062e-01 -6.758626913840592998e-01
-4.688661635608717959e-02 3.854070541562822916e-01 1.201389317308173110e+00 -4.339908583527490871e-01 1.269643237856856954e+00 1.987359158736193565e-01 7.702741703170187249e-01 1.342675837053798060e-01 -2.878526572533049444e-02 -8.277503912328064706e-01 3.394037216259502832e-01 8.772126897482596108e-01 1.014793784366544438e+00 -9.512630422040344591e-01 6.938420688212152410e-01 1.207578207805160675e+00 1.199414016769663416e+00 6.235801145021222514e-01 -1.549822141307407808e+00 8.844478193350733264e-01 1.032650926479063758e+00 5.299915940811043003e-01 2.177711029289431277e+00 8.799377197269039330e-01 -8.814078757937761077e-01 2.138452620643038760e+00 5.794268723137157018e-01 -5.985066792249089662e-01 -7.878378497607920750e-01 4.336967276295504714e-01 -1.043927378405685724e+00 -2.282717790859816465e-01 -7.499026867572152755e-01 -1.227017172250401522e+00 -1.049930798834310952e+00 1.238358941009950032e+00 -2.662753053889903576e-01 4.948248351658658395e-01 6.308272203406576351e-01 -1.943331791945700271e+00 -1.424782265748161691e+00 1.343869396905069902e+00 -1.194020822395196690e+00 7.739241203351578946e-01 2.054871410268953036e-01 4.892767522527212698e-01 1.146462709784685341e+00 1.496229319026311844e+00 6.478438354043953851e-01 -1.535721539205780584e+00 1.153733678008963981e+00 -9.093265726185267850e-01 -1.391214350501010610e+00 -1.645892999287960290e+00 -3.295660039482229964e-01 1.180532903551014146e+00 1.517018068840556011e-01 -1.466005678067181295e+00 8.201144465337498746e-01 1.157565946309526250e+00 -4.372732111775509689e-01 -6.305097334447788970e-01 -2.917483616536990509e-01 -1.519354696626192158e+00 3.077302672452139065e-01 -1.394142966216170565e-01 -2.250840216363732438e+00 -5.191341608043072986e-01 -6.809461815038568844e-01 -3.815421391645466009e-01 9.981173412006872914e-01 8.698213771622509416e-01 1.152553405406195441e+00 3.712882589426955704e-01 5.896571960954420828e-03 -1.209830965733014629e+00 9.703787666786735100e-01 -3.816433879211682534e-01 -1.695636686519719216e+00 -4.032838135558196140e-03 -1.170603515974213193e+00 4.218980560620467224e-01 1.271624343214084574e+00 -2.268288353018982351e-01 -3.157528080924421610e-01 -2.224628759761882457e-01 2.022347268104480733e+00 1.576343954341770381e-01 2.991418627155648657e+00 -1.329588076667191476e+00 -1.075169348335233144e+00 4.955703612644438150e-01 1.502442621862170480e+00 1.648220409632616679e-01 9.157789369994732143e-01 -1.286451368033642018e+00 -1.124060167621159456e+00 3.042518840640019429e-01 6.420720490903464306e-01 8.616880766230364808e-01
1.078741677938206411e+00 -7.834413115504565428e-02 -1.472301795574642025e-01 1.624406275240046771e-01 -1.335022437834209041e+00 1.242631747415698484e+00 -3.661325371780710380e-01 -1.532353380662617504e+00 -6.931307724999231645e-01 -1.164130375832904685e+00 8.067980620146277815e-01 2.176115373168204581e+00 -3.292595425156156219e-01 -1.533396092486727147e+00 7.092955760774105611e-01 -8.675165251705142522e-01 3.134073217983178727e-01 4.912993527526071658e-01 -8.049031876456343160e-02 1.070558835901208372e+00 -2.918497214766576864e+00 -5.439249014446323471e-01 -8.139654076440787644e-01 -7.206994508560881085e-01 -1.106566251682081781e-01 8.084292036115664493e-01 2.291973221039373121e-01 -5.645397983895935612e-01 3.070591457289636450e-01 1.510941801311694643e+00 -1.128546825984220625e+00 -5.142433712335828799e-01 -2.546733572732363893e+00 4.561015026571668338e-03 6.733197293414445728e-01 -5.737870608812114526e-01 -1.934309555334092490e-01 -1.630118103304530400e-02 2.411150483450926474e-01 -4.554031455008665796e-01 8.035362062932854821e-01 7.768792960068009457e-01 7.833091974017451775e-02 -4.075445462780822869e-01 -5.760314259394029301e-01 -5.279794339614278798e-01 -1.704546856968791380e+00 4.490925205203104564e-01 8.849687890762192310e-01 -8.294129256207135592e-01 -7.943001399814282326e-01 1.302767197555039447e+00 -1.081982308782433844e+00 -4.701671657858630393e-01 5.849184378225655845e-01 -6.997253153260698522e-01 1.297850829712260123e-01 5.443654557376635950e-01 -2.167249140807188945e-01 1.880909389447340818e-01 -1.976248892392489909e+00 5.711632032055415920e-01 -1.081277440054215777e+00 9.550651329551433921e-01 -2.630890429697281818e-01 2.766826494525904609e-02 -3.856672866518405240e-01 5.836818099369946999e-01 1.176524308395659579e+00 -3.261028169234655438e-01 1.049222789028593228e+00 -3.610489448976682281e-02 -1.545828078270584882e+00 1.538335143243718950e-01 -1.559064405308704937e-01 -1.704243170543252139e+00 -5.176994873576374889e-01 -8.987308807084174456e-01 -1.686169141863982091e-01 -3.673746316331574224e-01 1.432990684042277918e-01 2.008557599139778826e+00 -3.710319194222512218e-01 1.788233035356652789e-01 3.061354916984727059e-01 -1.417720425335149859e+00 1.718110065061815295e+00 -1.726723342757719715e-01 -3.983601751613624065e-01 -7.674938760309745200e-01 -3.263123736031592337e-01 -1.554433764848601962e+00 5.764895545016421874e-01 -1.271573336577875635e+00 3.748740006680292280e-01 2.424649005702458116e+00 -8.845751136424728767e-01 -8.083776749185294097e-01 4.303486708665051896e-01 -1.798081686054304074e+00
-7.800409444942695281e-01 -3.511208857064366806e-01 -7.373982671908072550e-01 4.639688577458192520e-01 -1.116744994871227137e+00 9.154436031647206207e-01 2.939998291326084257e+00 -1.245351776973521174e+00 -3.060887766230735441e-01 2.032468380960521959e+00 -5.055964506887072885e-01 -3.791542544855702745e-01 -3.555437322782034615e-02 4.949866587507693039e-01 -9.067353788450278618e-01 -3.239145641388901375e-01 -1.345782065398789973e+00 -1.518092075001176988e-01 8.102346768703663216e-01 6.291966004917236566e-01 3.215439338881444509e-01 6.749140069212350435e-01 2.148059964386874517e-03 4.057449759475653117e-01 3.506224317744182084e-01 -1.180981940734046498e+00 2.641516462971184032e-01 6.052652083430645064e-02 5.552462830609056210e-01 -2.048778720601462378e-01 -1.041050956178085907e-01 8.448009270499824419e-01 1.681900933488120975e+00 -5.007274198455602399e-01 6.636568573457495290e-01 1.497743096726556367e+00 1.708891578284241763e+00 -3.796379820781153325e-01 1.615024531580335321e+00 -1.773595691161589105e+00 -2.667401039579634925e-01 3.960183681106759779e-01 5.225342489116551192e-01 3.134685567801922534e-01 -7.630013229194296809e-01 6.730253875687072229e-01 1.149518833715194477e+00 1.671710571696574943e-01 -1.383451381620629528e+00 5.638279438657415321e-01 9.015597344003783986e-01 9.960041300789934660e-01 -1.651937215718341512e-01 -7.270684565225429274e-01 7.400203382062812141e-01 2.230799136307016761e-01 9.910695403661877734e-01 1.071385173520095657e+00 -7.390833225985631305e-01 3.655183634759557876e-01 1.148133423344906978e+00 -2.073369460230069627e+00 1.055365903495672164e+00 -7.281648561886372439e-01 -1.590200194582225057e+00 1.755021454194177766e+00 -3.778602417201702424e-01 5.826785110032817183e-01 -1.863510017073336744e+00 -3.460958439133476200e-02 6.502970669651810809e-01 -7.168127606352187042e-01 -1.096830372253372987e+00 -1.020583956625976230e+00 2.450122159191395893e-02 -8.591986870647602137e-01 1.585222620848995498e-02 -1.812232168703365565e+00 -8.381937709356789001e-02 1.751433634514485693e-01 -1.801810587969246147e-01 -6.000656937156162440e-01 6.769650794909040092e-01 -1.064997440400414774e-01 -1.160245555846016519e+00 1.233516460857270625e+00 1.806730242272288178e+00 4.444390007564933409e-01 -2.198999232904454704e-01 1.201556324367161643e+00 -1.404197113578683709e+00 -2.539331962722036692e-02 -9.975834844001720825e-01 9.800714604413220954e-01 -1.561294902490788061e+00 5.847071352099293406e-01 8.702756540069487290e-01 -1.405505692910510751e+00 -4.095916643240918309e-01 4.901519686865924430e-01
-5.980332916571112767e-01 -2.066964046970700686e+00 -2.020389029679983128e-01 -9.880994119186048419e-02 -1.060765520609098234e+00 -6.727043153773344386e-01 5.458197308064252073e-01 2.236057983398040128e-01 1.788249762140337484e+00 1.437241038312223329e-01 9.501643634339826949e-01 9.886207245845380909e-01 -3.661715119562049536e-01 -1.501485633928513641e+00 -1.765502682552477998e+00 1.718848356677240341e+00 -4.481491423246473094e-01 -8.324809587511267095e-02 -2.253868485813134703e-01 5.806582270746740715e-01 -1.938210695204533263e+00 -3.654206591069119603e-01 -2.373143924458056109e+00 1.036090100822859350e+00 9.249405650209123753e-01 -1.925308386792766169e-01 9.994014365909396069e-01 1.641103269790740171e-01 -1.134606787664605543e+00 -1.178050635053920353e-01 -1.495664238879078067e-01 -5.417171634188947538e-01 1.341370167610405284e+00 9.139367218241915003e-01 1.863046591876328373e-01 -9.414863764493106579e-01 -2.709929425762593436e+00 3.498408253092667453e-01 -7.840733520902265496e-01 -2.640767409370117780e-01 4.235850878658881102e-01 -8.764431173761244587e-02 -5.727052146648848874e-01 6.472576028055151420e-01 1.463976454147886352e+00 4.743309345184897330e-01 1.218519361842838045e+00 7.944810299610972626e-01 -1.272472661381564230e+00 -2.004900890115277889e-01 -5.971181070006166547e-02 6.375275790125966013e-01 -1.303872570220795390e+00 8.689718787814270096e-01 2.781349156388832622e-01 -2.159524252830328506e-01 4.549027432715433417e-01 1.524520023942567692e-01 -8.419882162651500801e-01 -6.625340353440861696e-01 -8.089665927894487130e-01 -1.706950668635988322e+00 -3.541087705468943803e-01 8.641159731424625789e-01 -3.869764021431615353e-01 -2.033913658532418456e+00 -1.200578814384124726e+00 4.149416965056754170e-01 2.215987454409079849e+00 2.486141318224601229e-02 -5.209172942496470560e-01 -1.114886896871423838e+00 7.356143854961187944e-01 -1.276087930597131104e+00 1.124318774894853101e+00 -1.095812945922443937e+00 -1.379528940754812361e+00 -6.255069903227427064e-01 1.269398344723732919e+00 -8.922353165725798174e-01 -3.381171514029010505e-01 -3.893115296159571082e-01 -1.324813128457592359e+00 1.585248592702179216e-01 -2.103753486901139613e+00 8.217179260681267694e-01 7.314348493594564626e-01 -9.797419788082157854e-01 -4.690504491038047230e-01 -2.905846554617729782e-01 -1.847708989253779910e+00 -1.083615131286955746e+00 5.312379691116773106e-01 -8.966542631735641145e-01 -9.156474781426494625e-01 -9.349372998126395107e-01 6.050652101767235447e-01 4.184748061851117917e-01 -1.986340425905880336e+00 -3.547743090615509964e-02
-1.282370497182913738e+00 1.454403647690659884e+00 1.614339136925365015e+00 6.883557740787857870e-01 1.329122969268490412e-02 7.577604511603792670e-01 1.129354560273034859e-02 -7.549926033491876076e-01 -9.724675146197276909e-01 4.883813355463683670e-01 -5.300589518747201856e-01 -2.750656118592499297e-02 -2.982440754986868114e-01 7.205626718891581239e-01 1.551588302203087855e+00 1.018312042093689307e+00 1.008196487446750556e-01 -1.270862636350200026e+00 -1.345986690906907368e+00 1.242647720854503507e-01 1.258290214849114186e+00 8.203807481653949685e-01 -5.096026446879681204e-01 5.990541087727300207e-01 -1.286793760448803781e+00 6.302473480354123803e-01 3.401697327314313624e-01 4.659756262132341287e-01 1.070200817007769256e+00 -1.411937458333635931e+00 -1.859237653095933140e+00 -1.763962277060484862e-01 3.346641590311315584e-01 1.886614573994654931e+00 -2.009057488167047545e+00 4.287111503381413335e-01 -1.673294736307032293e+00 -5.471602729807505811e-02 4.363348761368852635e-01 8.979147375978798751e-01 -9.003614023302365377e-01 -8.299082348242724505e-01 -1.754240306204121191e+00 -8.142311569596271115e-01 -4.083276236248934987e-01 7.686879256674494787e-01 -6.135544345888401807e-01 -3.490408718247311470e-01 -1.465035724399387895e+00 7.008215112795604940e-01 -4.553950056532896085e-01 9.450463299381428595e-02 -1.197566137954908516e+00 -2.285202998137289554e-01 -7.303188957072059839e-02 -1.200314817872017992e+00 -2.217029344124078760e-01 -1.537508762523569938e+00 -1.183108292293569147e-01 -1.168104990343387550e+00 -1.677228435005798879e+00 2.521763144018620562e-01 -6.573563878567972862e-01 -1.111592667714690785e+00 -8.693496207636849382e-01 1.033267995223552393e+00 4.206568220838698968e-01 1.540970457752275369e-01 1.883081438256388740e-01 -1.879958505430354698e+00 -2.682435715400394161e-01 -4.834999054237848481e-01 -2.163826522476984260e-01 8.144541803481580855e-01 -5.629157849885296772e-01 -6.716529210796081673e-01 -1.070631572048757807e+00 -7.418624305573354727e-01 -6.292106644349435562e-01 -7.052683883331454240e-01 -6.037060684859912874e-01 1.191658452691419789e+00 1.177167929649314965e-01 1.196523223337616404e+00 -1.791938052063778986e-01 1.198786870457835052e+00 4.791333360756397930e-01 -5.525288726317038046e-01 -7.373287504691743433e-01 8.426546525696470002e-01 5.446151821341701504e-01 5.298507718741967132e-01 2.985361227157551367e-02 -4.750239179577334658e-01 5.920775058853735562e-01 -3.885869072328272389e-01 -3.281875599211886430e-01 -1.078674170657955456e+00 -3.879455622430855732e-01 2.730424002667543593e-01
-1.421925056835027679e+00 -2.586841705336149350e-02 4.021097484940046041e-01 1.429912023743500127e+00 2.692739482778963023e-01 -1.600964220432134377e+00 8.998882360635157562e-01 1.511845109933956932e-01 1.413127686009712836e+00 -7.425268307254635491e-01 -2.313875137291614426e+00 -4.045143957511442845e-01 -1.324526640071342687e+00 1.362515745789161681e+00 5.653855646264746015e-01 8.564773660712018954e-02 -7.543810082023781893e-01 -2.245599712467241105e+00 2.172406119168119112e-02 2.370879848696887393e-01 -3.826491858689213266e-01 -1.628431739440513892e+00 2.121764857321594144e-01 -2.843839109929089837e+00 6.934529618235520942e-01 1.732421610768494880e+00 -1.597354026353982881e-01 2.866245669834803778e-01 8.940916894260254599e-01 1.509753980083337888e-01 -9.413969846413847709e-01 8.772506270908828618e-01 2.253994433778150341e-02 -2.623045702515050190e-02 -4.692036879491958135e-01 -2.808110064856502719e-01 -1.762267321290264255e-01 -6.278851674041854847e-02 -2.522064758743735036e-01 -2.141301450447232191e-01 -5.738804867125785192e-01 -2.684487155420353099e-01 9.483382839934064723e-01 7.475006213079767869e-01 -1.452313810040374742e+00 -5.596708232839877617e-01 -1.511530597777133167e-01 -1.050498616116591011e+00 4.713860601396396843e-01 -2.916664346297611621e-01 -8.759421386832096923e-01 -6.492878595502687630e-03 1.519997601246024566e+00 -1.629881561339795892e+00 -1.982144631225008169e+00 -1.801274851679833811e+00 6.519684011022303105e-01 -9.512764198031823382e-01 2.670662976231454877e-01 -2.346042244022926992e-01 -1.176375386460795980e+00 9.052999807134964882e-01 -1.366632296551112402e+00 -7.094937998435449367e-02 5.555915757315957881e-01 -5.849141605167635510e-02 -3.291015933504364832e-01 -4.810505252425660294e-01 4.626925413063560644e-01 -7.501360650615629400e-01 6.263912054706657906e-02 -1.582095843595828499e-01 2.148242076231687392e+00 -2.147209149927018900e-03 -2.431903165786558907e-01 1.175522229252821127e+00 1.493636803495459020e+00 2.802147705471733433e-02 -3.982340898547134800e-01 -1.138166002281447042e+00 1.108056537739729563e+00 -6.597408157897581837e-01 -9.716268964930998564e-01 3.127769098079051235e-01 4.687003529312386285e-01 -1.657193897672517013e-01 8.838004568982593678e-01 1.111399775993187955e+00 1.330293720192377294e-01 -1.091006662961553908e-01 2.632319916873612220e-01 1.020946906208068716e+00 -1.403979265057007542e+00 -1.321841676344849836e-01 -1.247549400683933385e+00 -1.390195217980830122e+00 9.940422485272076836e-02 1.013317959479671515e+00 9.371384843564490863e-01 1.672211254077356213e-02
-4.747303273897072740e-01 2.348612613742195043e-01 1.847773053041455338e+00 -9.671046953582504435e-02 2.518184347542644086e-01 -1.765093754078362887e+00 2.253241523504496691e+00 2.332755941028014646e-01 -1.142503715785842422e+00 -7.764138471420902743e-01 4.913747629158395358e-01 -1.155765843898950429e+00 -5.933872272822846572e-01 -1.093763418170338841e+00 8.527253964406863451e-01 -1.132328733808912746e+00 1.884882137980775640e+00 -8.536686942027011948e-01 6.351530404783800599e-01 1.300858236923983613e+00 1.018486926090003131e+00 -3.894950570200563303e-03 1.184902265427748347e+00 9.483791493207002210e-01 1.398827809295177360e+00 -2.182435851538054028e-01 -1.194459041118583476e-01 9.704182916842997164e-01 3.902818996164803544e-01 -8.265446010169894553e-01 1.288895591355984527e+00 -1.788538291881551501e-01 4.175872829601919300e-01 8.797522825874755092e-01 -1.676285783660134143e+00 2.989977092408670559e-02 -1.507666654175388699e+00 -1.633736922034334071e+00 1.263943924464747681e+00 1.739460816316821479e+00 9.912531922063182455e-01 1.397341243267063993e+00 -1.002305913479550892e+00 3.603935929120339887e-01 9.582328020434666138e-01 -8.755636986054765591e-01 -2.787142822641472950e-01 4.727629196470806150e-01 -5.854085919567393326e-01 6.103364251515273065e-01 -5.151736102907757964e-01 -1.174247457801844474e+00 1.789638601048894717e+00 -4.080810809288306085e-01 -6.094740265895733922e-01 1.048550485873050331e+00 1.701947960733088738e+00 9.433544449107129637e-01 -1.046521705933758151e+00 -1.161540111990843060e+00 3.005793270665133021e-01 -6.647496610160399388e-01 -3.478120986241790558e-01 4.333410946521717988e-01 6.581553080197926064e-01 -6.449648277800249518e-01 -1.114971928751212538e+00 3.053225834406728123e-01 1.350945843338352548e+00 -9.183855881724739545e-01 -2.665842298205696737e-01 8.079006685029205270e-01 1.347537427709924351e+00 -1.433981211947915169e+00 -3.286999560118420427e-01 1.309938000779399259e+00 1.047679530910189394e+00 1.447433767843059993e+00 -1.083720896449309024e+00 5.566891040180440564e-01 -1.337994784425681427e+00 6.639995222768424465e-01 1.171149600592592765e+00 1.319662113717704921e+00 -1.330693988089546864e-01 -7.036947135489401983e-01 1.111122314224568974e+00 -5.594072672369757582e-01 1.403265952593597987e+00 4.064767493911976004e-01 -2.373385968074471497e-01 9.572975010178432775e-01 9.443933116076654866e-01 7.012099121042933980e-01 1.493222490156179028e+00 -1.993758526161443501e-01 -9.349000884775287012e-01 -5.085337272617248550e-01 2.405168406659687896e+00 1.160557989113588206e+00
3.340156707189913532e-01 1.522650883547085998e+00 5.399077100028243370e-01 -6.792930331741421357e-01 7.840313797199216506e-01 -1.139056412562167997e-01 6.079377098068280416e-01 2.462762164392884034e-01 -2.438880218878518857e-01 3.536633340341348020e-01 -5.490557056976314021e-01 7.629448368705184225e-02 4.378216062752195437e-01 -1.189876036232061646e-01 -6.437871731751658722e-01 -1.197730431686721664e+00 -1.362739755678883835e+00 -7.764897956787869537e-02 -6.535144459127028016e-01 -1.041858028111736445e+00 -1.173160741663968665e+00 -7.779236944144857224e-01 1.438648835134958004e+00 1.947852077231461143e-01 2.238380422859025665e-01 2.330983432697567803e+00 3.172949569498001998e-01 -1.037639872179106915e+00 -1.205131947719984276e-01 -5.905551614414351613e-01 -6.410816527450234892e-01 -4.333061714185461044e-01 3.154166176496625562e-01 -1.932597474148549210e+00 -5.917423349228441154e-01 -1.056014999355617962e-01 1.016088080052451659e+00 2.191607501954222492e-01 -1.156245299298708451e+00 2.006883770737704964e+00 3.132776122352871617e-01 1.498939280988441647e+00 -1.169010574214985887e+00 3.804053767349923065e-01 3.307233092059057022e-01 4.006430777909353869e-01 -6.748801829417382381e-01 -5.079536924789739005e-02 9.022179076425332900e-01 -5.774021718714321683e-01 -1.256077693640478055e+00 4.049133729718605856e-01 4.936054577228572993e-01 -2.816168274434082686e-01 1.251376394538966652e+00 1.319823618290822065e+00 8.518361766525911483e-01 1.335691866474318923e+00 -1.273571517315879031e-01 8.627324119718077222e-01 -2.862517876477025602e+00 -3.268217980040334925e-01 1.825552624233964805e-01 1.025842703188551308e+00 1.059006560582475442e+00 5.509643858520335558e-01 -3.582550123153562249e-01 -8.266623793890923722e-01 1.779630170483786911e+00 1.343954379345184247e+00 -9.907876558444295156e-01 1.293989002620178574e+00 -1.187120142424066493e+00 1.382814246562200922e-01 -7.833551818302508796e-01 7.089302348843515844e-01 -9.434929383967317618e-01 2.185461897676115317e-01 -3.760017523854870120e-02 -1.843841869334567729e+00 5.344012096720766047e-01 -1.133210565121229640e+00 -2.284399942119773874e-01 6.512027656282575183e-01 -1.385938977439715503e+00 2.241781399381456374e+00 2.236705866872252396e-02 9.692758855632754855e-01 -7.267768354263363095e-01 3.713599548277223827e-01 -5.837125418342885563e-01 2.185207030860981448e+00 9.032318118933851947e-02 7.559566554948577988e-01 -1.255813247665604065e-02 1.490479099642430194e+00 -7.292375311057770482e-01 -1.295327707100663250e+00 -1.073087571070194368e+00 -8.174521102566697506e-01
-1.321794541537106848e-01 -2.017842945167406921e+00 -4.233867806478984197e-01 -6.760427212787472051e-01 -5.076160228131134655e-01 1.284571487249228205e+00 1.388949736927244771e+00 -4.362954270058250206e-01 -2.284183576083999023e-01 -6.416903253642594063e-01 1.354188198367709317e+00 3.203000041228481476e-01 1.786124149902911795e-01 1.505127748654159658e+00 1.864453434357309369e+00 9.017600611406632882e-02 1.953211641077767124e+00 8.880943641430938396e-01 -6.164885318210352461e-01 7.591252430243882188e-01 1.187703633274173054e+00 5.323421660149368906e-01 1.042369760438776938e+00 3.343605129373998230e-01 1.023131179666012969e+00 6.567201903427687393e-01 8.812111578996840722e-01 4.749157938147295366e-01 -7.897439097980154532e-01 4.253933717548793320e-02 -1.059137328817554735e+00 9.722263051539454803e-01 5.767856683135934581e-01 9.190033761639629928e-01 -8.684817291465853906e-01 -1.583825158783228881e-01 1.430531213747642250e+00 1.419753438966331882e-01 -3.075667803609260509e-01 -1.230822257059989155e+00 1.159618064658706427e+00 -5.028203120048703179e-01 -5.509813547308565207e-01 -3.438578025576181640e-01 1.145376899405679882e+00 1.944200806647113255e+00 -1.265018917674116006e+00 7.489582836013509715e-01 1.317090856161887036e+00 -3.961279982561716206e-01 4.593124458683448541e-01 1.102371210368116722e-01 1.099470806281237056e+00 7.799392904146692507e-01 6.771302815547234344e-01 1.020982249530447916e+00 3.393110207745381190e-01 -4.841065292105991569e-01 4.920564337150248324e-01 1.384656192474119085e-01 -1.417974155647327705e-01 -5.195799506583115290e-01 -2.974346208032063177e-01 -2.275695918974236065e+00 1.420413801411075372e-01 -2.948606231048764292e-01 -1.412128669119993574e-01 2.516670706225030973e-01 -9.533240648849627963e-01 -1.187993116815328376e+00 1.021949710747312778e+00 -1.180665813664083963e+00 2.196410777269877990e+00 -2.645123762919734250e-02 1.643477589816093598e-01 -2.095278055185718913e-01 -1.707768719613717678e+00 9.481623799049476720e-01 -3.939776595921937880e-02 -1.048341080220947852e+00 -7.985682958498593331e-01 -1.809966794775596632e+00 -8.253835903716846278e-01 5.085553802684186220e-01 8.096291102191949252e-01 1.835800638254085904e-01 -9.071616990756907750e-01 -5.309576123850597851e-01 7.199121664087483330e-01 -2.106679679064676625e-01 -9.237873126842122140e-01 1.187296286596451811e+00 6.729897466035269504e-01 6.537426697432729972e-01 -1.047526075140454260e+00 -8.005005493895667179e-02 4.118653161926863482e-01 -1.368842184000873763e+00 2.456024002472921020e-01 -2.344937493002436923e-01
-3.364317228592770825e-01 -1.924338518640192008e+00 1.661701810463185047e-01 2.128381761634673186e+00 5.842097458248971531e-01 -7.583906988029120999e-01 -7.796376387765376892e-01 1.521320496873229233e+00 3.762932623560068246e-02 -1.126740283839082535e+00 -1.070098243857036946e-01 -4.053037472787202611e-01 2.266554170583935379e-01 3.459759758113694628e-01 -5.929931374535598598e-01 6.598562042370413883e-01 -1.269399950782320041e-01 -2.075633902062707925e-01 -1.835956761139953874e+00 -3.860689774056749735e-01 1.041165177282334930e+00 -1.109293380729580392e+00 9.006883415955139194e-01 -1.181822200850609406e+00 4.042224611443077098e-01 -1.047526201968522308e+00 1.345823594946689017e+00 -1.377845879379646643e+00 5.381013095583049577e-02 -2.305480914438954976e+00 -2.970985857028490829e-01 1.212726162454477397e+00 -1.954150424741726289e-01 -1.235521834730241020e+00 -1.297148963426226487e-01 2.738676881851099809e-01 3.513000654660912714e-01 8.433243008690326503e-01 -1.695361465728496553e+00 -7.692909385417360246e-01 -7.285344822093746675e-01 5.724401632798609141e-02 1.351253040100680869e-01 -7.658311653394029861e-01 -8.220550878999869360e-01 -1.121204563921977426e+00 2.187576788531778726e-01 -8.220407106299938704e-02 -6.849122958845840214e-01 -6.267469206672601212e-01 -1.959787865235112225e-01 7.104907904070312252e-02 -8.679842001148455610e-01 4.328865382584021759e-01 1.146398185266469083e+00 7.707349386743702624e-01 -6.515838937035350886e-01 -4.854712546679357255e-02 8.030398413530857038e-01 -5.149919348732004964e-01 -2.777532400476691699e+00 -3.177683466327393957e-01 -1.824349284191816578e-01 2.909367611656875630e-01 3.531621151083157439e-01 -5.972413794903677076e-01 -1.146068008026378982e+00 2.460605669306528132e-01 4.944269536589537273e-01 -3.048947360333527645e-01 -1.040623839235327752e+00 -4.991817694043640952e-01 -5.144894592066180383e-01 -6.595575413142233945e-01 -5.687611687416297412e-01 5.831010510980939587e-01 1.235547539699152875e+00 4.294230207667006360e-01 4.442791699234814318e-01 -1.128042577647190070e+00 3.310808134101250189e-01 -3.064014042668905535e-01 -2.967785121612508403e-01 2.698293105307197348e-01 1.161436625282000534e+00 9.855883929983737524e-01 8.160810496524697477e-01 1.890844508007396285e-01 1.099773881191653757e+00 -1.957768711999941999e-02 3.316400486888234078e-01 1.510041536999922052e-01 -1.864739180960353626e-01 8.839367788991809860e-01 1.316672855953910259e+00 -1.210342034323426796e+00 1.125558445828219289e+00 -1.231858801470155695e+00 1.853013959068059435e+00 -1.359142743556178701e+00
-6.213333154850428919e-01 7.597540894123715471e-01 -2.018278893464763302e-01 -1.359940862101344905e+00 -1.307591444121236623e+00 1.334282250626865673e+00 1.332698162894265792e+00 -9.061296289804635640e-01 1.987353726700394063e-01 -1.320017528913110638e+00 2.399901725855746459e+00 1.155617854268666367e+00 4.126649381972108954e-01 9.651369044292006372e-01 8.374888768902832847e-01 4.514237808596582857e-02 1.681647532239461063e+00 -1.713657468697691755e+00 -5.002429818098363956e-01 -1.051672282833404193e+00 2.081076999258085092e+00 1.658489269261499865e+00 -8.711982429797464622e-01 -4.369967693018604604e-02 -4.559236723733997576e-01 -1.183690197264141292e-01 9.325805966623939014e-01 7.636893526299870505e-01 2.689257104496017847e-01 1.164493344595847413e+00 6.510662874038101178e-01 -1.517934123424812709e+00 1.297847883616661591e+00 6.331141387569846346e-01 6.407526617193866070e-01 1.506911478989103825e+00 -2.605366881919566890e-01 7.954478776821859443e-01 -3.485639860564389014e+00 -4.094153275202828124e-01 1.836067737908224640e+00 6.059150898466425517e-01 1.410728112485909014e+00 2.726307318677734792e-01 8.629640181832310547e-03 -3.874521307661516478e-01 -1.441441014753845618e-01 -5.109249485725623208e-01 -5.391741151372333452e-01 9.317208900083548406e-02 -1.748889924742040858e-01 -1.263583422799006706e-01 -3.500905538097555114e-01 2.793374524923146751e-01 3.002584743906786535e-01 -6.691027597437941843e-01 -9.118711297867910792e-01 2.872035712782404548e+00 9.172584325670807281e-01 3.126744469347870203e-01 1.485791223738724298e+00 -4.299262165498466404e-01 -9.548714964919857717e-01 -5.416177482003564636e-01 5.266329110508611855e-01 8.032724631756468225e-01 8.913290315201792824e-01 -7.892717119529193415e-01 6.162741763514807403e-01 5.500972625428364182e-01 -1.301513103234156477e+00 -1.167990275257029115e-01 -1.062113715575624395e+00 -4.031029322637518786e-01 -3.553643884475080617e-01 -9.619526349897123962e-01 -3.417672419422995156e-01 1.813316799673083679e+00 -1.813452113945944966e+00 6.551486141388922491e-01 -1.504480821328552445e-02 -1.970275239294276906e-02 -1.025904091431672827e+00 2.414273304018146882e-01 -5.668816810908762216e-01 -6.889529807350304180e-01 -1.466792331761951063e-01 4.325886642134754156e-01 -3.055471376410886508e-01 -7.193787716435330326e-01 9.294489018810810910e-01 8.183029410962538996e-01 -8.617255374237681176e-01 1.287034647340221882e+00 3.274539857221446526e-02 -4.690010994492158636e-01 5.080235481369179684e-01 -7.598745990797077798e-01 5.532141149836372618e-01 4.542435553738716769e-01
-1.220925861803735524e+00 -4.832760939599805017e-01 -4.659106513226337620e-01 3.143145641069504115e-01 3.475256573253622805e-01 -8.112274727699390897e-02 -1.558882302035154765e+00 -3.534389825530268037e-01 1.102004311732984465e-01 -1.401859045203986298e+00 -6.037321287421905103e-01 1.003604673647741308e+00 -1.653786455068182171e-01 6.230794681489073561e-01 -1.433422342342250966e+00 3.479488552995484429e-01 2.009649857092660197e-01 -1.277009835775048785e+00 4.257122050893014792e-02 -1.140937748548960379e-01 -2.824837164170329595e-01 2.389837978135179730e-01 4.160874710834376600e-02 -4.773980203030311342e-01 9.721846127244637703e-01 1.706925230915780745e+00 -3.270007761202626817e-01 1.654972217393478440e+00 -5.093849394886027504e-01 8.997992279185600406e-01 4.707925300596031981e-01 -8.906030922270783412e-01 -1.692478108660707248e+00 -4.227900305771504358e-02 1.113318222370853539e+00 -1.426380516409524013e+00 1.904414715602757102e+00 -4.269109203564149801e-01 1.995244272593799773e+00 8.306254835992307184e-01 -1.489999812095755161e+00 -1.762146136873491642e+00 5.038771406404566333e-01 1.334704601046273476e-01 1.485059778301324851e+00 -5.784929172367806460e-01 2.748727158321080388e-01 6.684060712662509562e-01 -1.082993446536970383e+00 -8.956708449882754275e-01 -6.253090780359745748e-01 1.142792056828105363e+00 -4.884188800707194855e-01 -1.596479452499366847e+00 9.867260041806350523e-01 1.641518852665861283e+00 1.221701400878886679e+00 2.682150006356731065e-01 -1.619283332551918475e+00 1.475201788519064472e+00 5.278215061098754379e-01 8.343608340117675271e-01 2.940407429918531768e-01 -4.766507843755633522e-01 -1.839734521218900146e-02 -7.672974998152604087e-01 1.461405146576698399e+00 -5.718864763199595913e-01 -3.226988906256876843e-01 1.434261662039406415e+00 2.122943095610209108e-01 9.811285360492735808e-02 6.594230777898804075e-01 -3.090817748465078396e-01 1.052242384988519186e+00 1.037779866904171566e+00 4.371150801509274819e-01 7.838242797798675721e-01 -2.396003816858472135e-01 1.553657905403340811e+00 1.210873490974442079e+00 2.715294982856675254e-01 1.126641344705762819e-02 9.302034590953184301e-01 -3.297607402340348992e-01 3.753298938044720146e-01 -4.404548291871790075e-03 1.008407434163361538e+00 -1.331892004557172271e+00 -1.264432790792916483e+00 -6.445396827413599206e-02 2.153760429106277643e-02 1.715605608202257715e+00 -1.323420800189933633e-01 4.376880922442577537e-01 -2.733840227563393843e-01 -9.181751530367949776e-01 6.917805238131973233e-01 3.616541684378700161e-01 -5.235389058661260586e-01
-1.739434893540466598e-01 3.172580789625856768e-01 -1.483354458179557411e-01 2.679832597257926774e-01 1.665133358376170936e+00 -2.184422783039699834e+00 -1.645023649837341839e+00 -1.034965484476304542e+00 -4.502477501358866263e+00 -7.924526462911414271e-01 9.123759768425223626e-01 1.153061048526490939e+00 1.070142945158513575e-01 3.571086067248755991e-01 1.378313528360922247e+00 -6.759197012915422187e-01 -9.026804879962995187e-01 -1.833382082941264368e+00 1.448024670140522163e+00 -4.560683359421633387e-01 1.242964500199030597e+00 -1.757574585292013547e-01 4.668895149282169532e-01 -1.602436700361016195e-02 1.161369315815620640e+00 1.511469843661697787e+00 2.498655560750289606e+00 8.122838828069683936e-01 5.259830844146365925e-01 -1.747259052632180065e+00 1.603912604944608189e+00 2.131510403181175184e-01 2.063857565822453388e+00 -1.167183593965771760e+00 -8.956784274908263788e-01 -8.598587601542136138e-02 -4.985957356246639716e-01 -2.684391508677811622e+00 1.395022732424300527e+00 1.186733016658477302e+00 1.808253216543613540e-01 5.064319260372830422e-01 -8.616219575758716775e-01 8.252480029944266882e-01 9.187099781650855945e-01 1.828674565864352175e+00 3.524852888627684200e-01 1.276641410000201926e+00 -2.030776177239256963e+00 -2.202147639697244197e-01 1.018006768203598922e+00 -1.298095275473327981e-01 3.873020128048571542e-01 9.666370378416703213e-01 2.531874476856574852e-01 4.932924753198828505e-01 3.727003980929199933e-01 -1.951394958047132089e-01 8.482377509945465688e-02 8.355043782540771957e-01 3.594345273233549021e-01 1.747935389053957844e-01 -2.354889486667110510e-01 3.483063111156871616e-01 -1.911826067961291509e+00 -7.473881194244305082e-01 -4.716142148178121274e-01 -2.306536159200780478e+00 -5.735413459564557837e-01 -3.370664674150591206e-02 -1.515262338989892044e+00 -2.040689025403942480e+00 5.235413877202809152e-01 -2.749710843613935918e+00 1.094287978690413388e+00 -1.657915200079615736e-01 6.650076668210155306e-01 3.174813625479882412e-02 -1.098033152839012150e+00 -1.534735968476831136e+00 8.949598326171217533e-01 1.756185591330763129e+00 1.660558652459177331e+00 8.547392897463709227e-01 -4.892054938145007359e-01 -1.133764394601297187e+00 8.444627938165719661e-01 1.864936458828904131e-01 5.385575411803881218e-01 7.947152782034520024e-01 1.974449541026430888e+00 -8.328457123654287031e-02 -6.273797700086604090e-01 -9.372977177772627844e-01 -1.074138423332586356e+00 -1.500279288295192970e+00 -4.389229261263516979e-01 3.866568717787016163e-01 -9.155878010826444882e-03 -6.752160056307374703e-01
2.845400667484764834e-01 1.213322452003096213e-01 -6.477746324826628710e-01 -1.380738143276242003e+00 -1.199209502980798536e+00 6.804721262883985933e-01 -4.255619449170258695e-01 2.130678907036013744e-02 5.331526894782482318e-01 1.786420008973305662e-01 1.022612806569137417e-01 1.058889098919780780e+00 -1.497681875009586883e-01 1.937905252774499432e-01 1.439575175967057419e+00 7.720548840496754828e-01 -6.597808307352152069e-01 1.367838085925279445e+00 1.066161990823704775e+00 7.426299205159747618e-01 2.342158855284960997e-02 -1.644735543211275908e-01 -1.933629959344119076e+00 1.896080100137876201e+00 8.219254184678344011e-01 -6.739544463409556652e-02 7.780107443979622506e-01 5.249897472811611010e-01 1.629731426579971165e+00 1.811917109792215985e+00 -1.982122075111486803e-01 1.923314140307040288e-01 5.428285442992880627e-01 3.398650083293349722e-01 5.575698110616831293e-01 3.485172684573559776e-01 5.591875685197609247e-01 5.539046488177796351e-02 7.313647586646468968e-01 -1.971939487543287406e+00 1.117539667094073375e+00 -5.915191355064323142e-01 -1.775002808702847101e+00 -8.126448883221114583e-01 -8.933755340504546671e-01 -1.724697493949759741e-01 6.841338118187867412e-01 1.890632733198151172e+00 -5.770603084931302806e-01 -1.585652967485146891e-01 -2.344663890908360138e+00 1.332355378683720559e+00 -4.710539829098120412e-01 9.710697709793615628e-02 2.459380974750602800e+00 2.000545255900948227e+00 9.133316976966183720e-01 -3.426619588525349758e-01 -1.320991762966079383e-02 -8.314363257315172673e-01 -5.650022268789587354e-01 -2.928279437908721250e-01 1.654079441402434014e+00 2.919636353095925729e-01 8.534278020880208260e-01 6.942015620364524464e-01 6.858192473693878188e-01 1.444982645791838827e-01 -2.677245444233475671e-02 -5.632674831258189796e-01 4.231353435336591140e-01 -1.159627433536934316e+00 -1.239248465074862748e+00 -2.388798314512392551e+00 3.318128607921698170e-01 -8.492433554299734233e-01 1.021068252584842462e+00 -6.254387657485470375e-02 -2.778328310582243721e-01 -7.757655502336441300e-01 -5.020812209782828939e-01 -9.886577121634665399e-02 -6.150887557832048630e-02 -5.090089282027495665e-01 -3.317956810979302285e-01 2.269038598680167829e-01 5.639137233565543195e-01 -2.497784965190344153e-01 1.501685742014940317e+00 -7.278389530993056855e-02 -2.713694156891070519e-01 -8.796391872386599697e-01 8.791617416244911221e-01 1.577017725236909307e+00 2.695879513313035325e-01 -1.116991037494261541e+00 7.733326563308851043e-01 -2.873391877653023729e-01 -1.486108051114033879e+00 1.387677423820561362e+00
7.552969866820123945e-01 5.782870409638551229e-02 -1.925721445262884135e+00 -1.465288082047355500e+00 -3.251632725848828120e-01 -3.137892450375228542e-02 -1.604365541236142612e+00 -3.416590831269530337e-01 2.407862827689774901e-02 -1.145161902212284311e+00 -7.434140269589217809e-01 1.502751661164718033e+00 -2.187477939616940814e-01 4.393271413367684786e-01 -4.266635996916883777e-01 3.068533629405642005e-01 3.869938005008117243e-01 1.887112459377057405e+00 4.685936726574280176e-01 7.770723427450439147e-02 -5.010456587700230502e-01 -9.896154188323510459e-01 1.624330662874113651e+00 -1.621100555441839508e-01 -1.155532649870358641e+00 -7.431164244169714550e-01 -9.376076081430964049e-01 -1.741405385505002901e+00 8.418354672778126657e-01 1.367400405738252056e+00 -1.047178353990542821e+00 5.351711167317583229e-01 -9.568803046162811798e-02 1.558782364418562549e+00 -2.464708148042713265e-01 -1.946351119628788040e-01 -1.202818684056686127e+00 -1.041858332834610046e+00 1.139888302848554469e+00 -1.701951980669327069e+00 1.501724452287310496e-02 4.423525035335639649e-02 1.749020025780878562e+00 1.909909895833693805e-01 -1.648457010475372853e+00 1.293789704544223707e+00 3.576997313465865025e-01 7.744377451206816421e-01 1.462164934437385766e-01 -7.312445323834422251e-01 1.547953385154453132e+00 -4.281845072179860656e-01 9.129964478901166913e-01 -6.235101163590131002e-01 -3.146815415905069302e-01 2.953115716656028455e-01 -5.951586008027508479e-01 1.078490449761546587e-02 -9.061410599208119532e-01 9.088693118811329574e-01 -1.379908953527206439e+00 -3.637447242440346451e-01 -1.299325909482526020e+00 -1.407201310120770099e+00 4.531606820654475454e-02 1.025336427325754363e+00 -1.340438439118815106e+00 -8.291767558733973420e-01 5.239166163735463622e-01 5.028055403189884975e-01 -8.457810104154358521e-01 -1.444300859150036809e+00 -1.260044113855281589e+00 4.663297463637164908e-01 1.095607949898283140e+00 -5.658716803130062756e-01 -1.635803265508182225e+00 -4.444794665714018600e-01 1.113820940945581262e+00 6.346638238572336332e-01 3.231929854554364545e-01 1.881728124271992708e-01 6.006446975580970182e-01 1.285918947051558403e+00 1.456836600336548271e+00 8.376819070874778062e-01 -9.411429236668423792e-01 -1.246968527431949081e+00 1.776210764669951869e+00 -9.658328169570945532e-01 -8.316588853467271614e-01 2.845655067483447986e-01 -2.988890032860706203e+00 -4.476233035668230054e-01 3.316808647541631960e-01 -4.662385281682523419e-01 -1.299463285571916260e-01 -1.012690864135883162e+00 -8.101372737091353526e-01 1.073259146390736163e+00
7.951662265850718558e-01 -1.511246419691083753e+00 1.245552209154048295e+00 1.266934644300627966e+00 -7.954464088741299843e-01 8.853165468655744830e-01 9.928209567307954009e-01 -1.303957369749181305e-01 8.123940351795655435e-01 -1.927427153132462156e-01 1.112541858435360798e+00 1.153861152879887886e+00 -5.860099911323293220e-01 2.543042190435380601e-01 -8.096162436841956855e-02 -1.210800538814359228e+00 -1.431942626281146103e+00 5.525685633527084306e-01 -4.440330587715797250e-01 -5.221619702826354459e-01 -1.556323804462849569e+00 1.585196753494741984e+00 -8.403669141620866423e-01 -8.544743915795166567e-01 1.636647502470407245e+00 2.726800127047969702e-01 4.047635388647884969e-01 4.944348323167865322e-01 2.125617359118240568e+00 -4.610270627696844148e-01 -1.356140380869846007e+00 -3.640952832183101950e-01 -2.708437668522679642e-01 1.103156536378111952e+00 -5.802197189477346084e-01 1.579277294544292998e+00 7.226315923127452079e-02 -1.253820749049630479e+00 -1.587472274095486524e+00 -1.907475936786265924e+00 -6.522228942819469077e-02 -1.497808805759702100e+00 -3.366964155463726960e-01 -5.999185639864944575e-01 4.604959645133402946e-01 -7.848322883789391469e-01 -5.141062375776467297e-01 5.130912274927618144e-01 1.843432812220061834e+00 2.837834128417196400e+00 1.999935505890840237e-01 1.059433896926997631e+00 9.282995600969800032e-01 8.934655036371187409e-01 -1.844801914077366378e-01 2.261305682488843338e+00 1.727307141315529426e+00 1.277168201969611561e+00 4.980855966076448982e-01 -4.723584256682010207e-01 -5.571552909233609130e-01 4.604363777771700028e-01 -2.315773636943645908e+00 7.011980220064185643e-01 8.227978688956624764e-02 6.244308509675855490e-01 2.734807278136225372e-01 6.921140362266128832e-02 2.229536775112597735e-01 1.483705309679155260e+00 8.139685090430289760e-01 -4.250990166403962323e-01 9.554995101735155316e-01 -9.449388554782901517e-01 2.573167925947401069e-01 -1.157929579118847779e-01 -2.525457451634059325e+00 -6.463277143716905648e-01 8.176272706500836707e-01 -3.231482472668806838e-01 -1.938336115395822012e-01 -1.294224665780210559e+00 1.875416122970961774e-01 3.987441219869330977e-01 1.317375838933527943e+00 8.281105617574282540e-01 4.597282614366094977e-01 5.971856162605968521e-01 7.071951654182135893e-01 9.267225422070295426e-01 -8.844651825860722072e-02 -7.641744692161852592e-01 6.841137285436175164e-01 -7.948339953999504492e-02 5.717365210585519941e-01 -1.073224050490709791e+00 -1.209199419116139484e+00 -5.938151793391209798e-01 -1.832805754911310370e+00 -1.972190634034836965e+00
3.296327077666577621e-01 7.916527652795960490e-01 -5.250490393183281368e-01 3.364290200381503393e+00 3.275662044687698837e-01 6.131543206969825022e-01 -1.734251986612844521e+00 -1.181919099779672466e+00 1.194918669229553920e+00 1.106443618114431260e+00 -1.647713236524421809e+00 -6.527582044295654473e-01 4.645511261192475927e-01 -8.662707224827485147e-03 3.408001040182767616e-01 2.450650078511076024e-01 -7.968850817997084057e-01 -1.544657426148692281e-01 4.483523076327516343e-01 -3.221448775046094060e-01 9.231617428964837835e-01 -4.535618254118551351e-01 -1.958437202356640428e-01 -1.247896335698358838e-01 9.737907834481638325e-01 4.962197910459247713e-02 5.340592919500847247e-01 -2.555605272897527591e-01 7.519122359560419522e-01 5.579052797724518009e-02 -3.173853715638798034e-01 -4.288284880246046038e-01 -1.087574387434928208e-01 2.933004846893960127e-01 -6.089976394454236219e-01 5.576319434726931812e-01 -1.027613716121934306e+00 1.011047872775185041e+00 1.121530129595472713e+00 1.281660507134812832e+00 -1.913238688046839386e-02 3.464887801032496273e-01 -7.784539765837319436e-01 2.991570628914123620e-01 1.765924236504481382e-01 4.536261242439686980e-01 -1.813287231909038455e-01 6.367135119167764978e-01 -1.782600460812595156e+00 1.992585118428805702e+00 -3.028228648114869692e+00 -1.026514244850306623e+00 -1.507558405137618518e+00 -7.265883786751330120e-02 1.460969502893439742e+00 4.098919335037746192e-01 -1.050015398857979898e+00 -2.931783815812325639e-02 -1.610216095592518215e-01 1.405262820522792833e+00 -1.186010547930120562e-01 1.261338994942716285e+00 -8.363666856293337781e-02 4.580554704610761974e-01 1.111328632435242048e+00 -1.832877266310798114e-01 -1.411820826313433752e+00 -4.993580565882682620e-01 -3.339062297830428516e-01 6.372572647496603793e-01 -5.826960567938508362e-01 -1.021155847515003767e+00 1.900551495330340623e+00 -3.018772173919193058e-01 -6.413891067192714068e-01 2.057332403866503900e-01 -7.583441857990981250e-01 4.249996224293438596e-01 7.969880132138905393e-02 2.074525395513568404e-01 1.572085283109492027e+00 9.537526117912427381e-03 -1.751461082357785026e-01 -1.932377945855272561e-01 -6.903458160093972618e-01 1.933932671520446567e+00 4.610685295387868532e-01 -2.713441537379167601e-01 -2.939858116478434535e+00 -3.622243417056407178e-01 -5.207855904063374286e-01 3.295755861045917001e-01 -1.208342854439623082e+00 5.163915351920816965e-01 -5.779509986902615637e-01 8.353698264582457567e-01 -2.214829872809478128e-01 -8.111326540543231101e-01 -1.597740854195801807e+00 -1.614863615190789581e+00
1.493880909705638027e+00 -8.281867221799386058e-01 -7.442176927723783697e-01 3.720638427429592832e-01 1.377129985041542160e+00 -7.865928127520456226e-01 -6.758466108922498439e-01 8.210917138624096445e-01 1.101328364226915463e-01 1.007084978732397218e+00 -4.155542699613349461e-02 8.845853476766016299e-02 -1.196697676337909355e+00 1.190144094219995008e+00 -2.663389519449756437e-01 1.561007687971249114e+00 1.043488744041430438e+00 -1.172871534263118853e+00 2.987034955521287727e-01 3.941208855404783051e-01 -3.759589348792894969e-01 9.854470514029077810e-01 6.499760275836862222e-01 1.466998678277856127e+00 -1.460921530316968697e-01 -1.673670168319292828e-01 2.845837036995217395e-01 2.455456256803150605e+00 5.255449882494722669e-01 1.536453985401908140e+00 -1.030590101841274864e+00 2.681883534143635339e-01 -7.692189645346195759e-01 -5.893875227153893004e-01 -8.865200856132708640e-02 1.567145987936515938e+00 7.478668287339203247e-02 -1.579458441042603800e+00 -1.973713390120261479e+00 -4.457956046597092992e-01 -1.911614442947019155e-01 -1.545271933064130465e+00 2.865899261532761089e-01 -1.357540902575849806e+00 -2.501134532160162460e-01 1.588417519248217294e-02 1.084410368692375615e+00 -1.265330644165121310e+00 1.973496713880896536e+00 -8.094607531748094775e-01 -1.989202319736550928e+00 8.419186701028447128e-01 -1.657264724230278485e+00 1.202104077287247108e+00 -2.174698446490086035e+00 -1.302083807971871621e-01 3.621817755886897611e-02 -7.772189476682416220e-01 -6.186752467561740243e-01 -6.941401879145001619e-01 7.102036022335800336e-01 -1.094548741929087105e-01 1.540687151572079694e+00 1.890111147771718070e+00 5.380662178557974601e-02 -1.961930707106048999e+00 1.166526236592837357e-01 4.025036716519633795e-01 -6.138153923258800049e-01 -1.156610264149382783e-01 -2.116408484292827408e-01 3.628474088872824521e-01 9.748379456802439558e-01 3.977046153679805740e-01 -2.086482706420051975e-03 -7.364585289226378562e-01 2.511610167158748741e-01 1.077952869852537354e+00 1.770554566804264152e+00 -2.279193677486353931e+00 -1.490746342689192927e+00 5.175866812135384437e-02 -8.434308592732409071e-01 -3.211051593315718544e-01 1.038231653139771948e+00 -6.438564622298408036e-02 -1.123850205128234414e+00 -6.024329057100100138e-02 1.154570929252963118e+00 9.062400704621274006e-01 2.579645306658336426e-02 -1.496528772678839436e+00 -9.418963989588551300e-01 7.698896906727745182e-02 -2.158295301585961390e+00 -1.573495990914215215e+00 2.480259440309134644e-01 2.072881899584340104e-01 -4.454898585540358891e-01 -4.094119139275190777e-01
-6.093597119639589943e-01 -1.124787415977026583e+00 -1.199904763348424996e+00 -2.643900219151850695e-01 -2.920121832197630773e-01 2.702097964632000915e-01 6.279159510790065513e-01 -1.829890973241589558e+00 -1.827202132273532342e+00 -1.139871035377513886e+00 6.130015500531508232e-01 8.880986097370571763e-02 -1.221388613230578679e+00 9.878099938045706296e-02 7.907475510021395593e-01 -3.993989371616539219e-01 -5.191117492481422957e-02 -8.150741755142459910e-01 3.746209090982166035e-01 -7.584041405623147547e-01 1.207930841725076032e+00 -3.264311337917887856e-01 2.743026939494882743e+00 -9.251623287010328767e-01 -8.622839940742144105e-01 1.480753537276402465e+00 -6.315971646019017394e-01 -1.499944145216018709e+00 -5.575113014455450600e-01 -1.005323864125605926e+00 -1.579181699124118932e-01 4.925367795839628027e-01 -1.862199135189560595e-01 5.978310817008200551e-02 -8.658876450931934921e-01 2.180515287567473592e+00 2.401227210788358934e-01 -1.004913015708132740e+00 7.834527406317722820e-01 -1.262282282833463443e+00 -1.341028493152849888e-01 -9.983630117196261311e-02 -3.027857540797315394e+00 2.344073033957920771e-01 -6.366016720233165227e-01 7.643309501942839868e-01 1.771452029466289879e+00 -9.515074083392193183e-01 3.036529152265282638e-01 2.666641334599874069e-01 -1.800630795260982575e+00 4.668760373404383657e-01 -5.037757907269756474e-01 1.058482717889776659e+00 2.839205977839390771e-01 -6.322148173106540980e-01 2.697306960092971662e-01 -3.333187728602452493e-01 -4.872811827575755372e-01 6.391350643886218874e-01 4.943258346936729719e-01 5.905812592168570019e-01 5.751134392402971196e-01 -4.106542058886225588e-01 9.335878720113618412e-01 -4.011512943260948094e-01 -3.009457191110392199e-02 -9.553854536246511042e-01 1.530520549892822268e+00 -5.904516652965170476e-01 -1.801956187516086993e+00 1.108247121694388548e+00 1.825617099370899776e+00 -1.776421154468180719e-01 -2.041844091379393600e+00 1.167189238766429105e+00 3.840205912341678185e-01 4.915849861673033949e-01 5.591309060184713742e-01 -1.417213458023294015e+00 -2.241763389034783227e-01 -1.382052362603774176e+00 -1.819328829441796136e-01 -1.507781706092606311e-01 -5.925129525391243934e-01 8.071148620207991842e-01 -1.409142672837600418e+00 2.318014043430537630e+00 4.665016934149924799e-01 7.621498846568810492e-01 1.463737381794281367e+00 4.774912219607064801e-01 -9.631278470649944357e-01 -8.798979773514102598e-02 -9.988493274791138132e-01 1.448117944435043158e+00 -9.829652582702768093e-01 -3.999624126505705868e-01 1.101028424076240242e-01 2.739436102059431999e+00
6.373082148292524840e-01 1.061862614898682750e-01 -4.757357518610640934e-01 4.928362165613615897e-02 -6.241847093681693881e-01 2.301858823962741052e-01 4.238790303244210356e-01 8.357754956867061713e-01 -7.874007262017754805e-01 -3.658783778313873247e-01 9.110706488823787641e-01 -1.929337728361682824e+00 -5.342786555576478635e-02 -1.048376297409404856e+00 9.317544882983853638e-01 -9.274289358673728501e-01 -1.914368661480960465e-01 1.386490812486068425e+00 6.620031410470341715e-01 -1.008146714572703884e+00 1.091474431938480039e-01 4.670933425858367904e-01 -5.700041114471885439e-01 -4.041309144360822475e-02 -6.973905456680420389e-01 -1.458051234468776380e+00 -1.147696084119214754e+00 1.433940820282212147e+00 -9.552134751715414263e-01 -9.218026477294032350e-01 5.135482071538106652e-01 -6.511530501779519975e-01 1.402235788637962832e+00 5.911775658919569132e-01 -7.183415851189302037e-01 -2.102751434322515101e-01 1.371928453181357588e+00 -3.754880343650572327e-01 7.363836823821456878e-02 -4.052058331984487727e-01 2.244257984430718000e+00 -4.162082131220690151e-01 6.946283122474231631e-01 2.759972982792031626e-01 1.125025372056707856e-01 -1.942613977999510633e+00 2.147420772109647658e+00 8.216340989111498017e-01 -4.868499559566560886e-01 -8.475129109526278182e-01 -1.103739199297268381e-01 1.572096125611548656e+00 5.612419960360094384e-01 -2.018057088109787567e-01 -1.424504355011627199e+00 -5.140107063233813056e-01 9.484725464864763866e-01 -8.077233272261091779e-02 -8.001942051437883618e-01 -1.062530057759857538e+00 -1.060305720887937841e+00 -1.291940812519440041e+00 -1.388837602926157322e+00 -5.178577688868872819e-01 7.554181160132179551e-01 -1.486427927241336322e+00 -1.067237998787881503e+00 -6.452820504034877391e-01 8.827237389862518935e-01 -1.058174073901810619e+00 4.002647118970993900e-01 -1.025430028261683724e+00 5.289271506766982794e-02 1.893063537396037777e-01 -6.258925030379763887e-02 -1.186961715390430161e+00 -8.824888865675178939e-01 2.201149056779690305e+00 5.260732771758518389e-01 -1.278818970109339315e+00 1.406969429260160220e+00 1.427619689952118742e-01 -7.311292249481948780e-01 -1.049255513417454821e+00 -1.341363582886354877e-01 -1.904135624643039093e-01 -5.913261424779110709e-02 -1.117942481513327202e+00 1.297963167250943295e+00 -2.036561549013616634e+00 -6.896304473898721143e-01 5.695445264936221941e-01 8.855219842825875487e-01 -3.421052116560239220e-01 1.679635277097294432e+00 1.056475243936177089e+00 4.512784439102761058e-01 -2.447766294785116425e-01 1.194784769554545045e+00 3.291308484441280990e-01
2.554831623093146709e-01 1.110966236069060198e+00 -9.954092791554008945e-01 -9.178734336345161227e-01 -8.906843656673921195e-02 -6.808346764248538428e-03 7.319970427821633763e-01 -3.327095895034746231e+00 2.349317802536695088e-01 -5.349456289774597861e-01 6.673315686004412939e-01 -7.111760749558228012e-01 4.638758625720231787e-01 -8.123425787901757955e-01 9.860056516317020625e-01 1.557618912817939183e+00 -1.147714939595100070e+00 8.381343074343168276e-01 -2.310645420172400044e+00 1.304176992942643887e+00 1.322687459433388446e-01 -1.906107046508243030e+00 7.963536572179542583e-01 -5.803868767276745277e-01 7.045692944924974999e-01 1.787036112140164001e-02 -1.440305000910280464e+00 -7.909368045181082163e-01 -1.483741979877777339e+00 1.101872483689742221e+00 -5.768164009387370950e-01 6.568096998685928334e-01 -1.288098910213495207e+00 5.961583249833002363e-01 -3.295490322787021920e-01 5.947292713365952971e-03 2.963876591854781584e-01 -1.132549158607820239e+00 -9.766840559235376862e-01 1.155981737593688052e+00 1.686077313856596316e+00 -7.509287501906140028e-01 7.159191932206249165e-01 -1.322406532150232739e+00 1.498915394407306367e+00 -6.347467492945932932e-01 -4.624791225465392508e-02 -4.795203187368126119e-01 -1.292859215932408157e+00 -9.766690239989053723e-02 7.536139431342129269e-01 -7.818531278938470885e-01 -6.776264160106936218e-01 -6.700830883235223134e-02 -7.714838246244358488e-02 5.317190190275089545e-01 -1.582811939088374018e-02 8.383630582061691872e-01 2.559272464633712343e-02 6.474931089757357539e-01 -2.486569365750814775e-01 -1.374680588630910361e+00 2.650160719796276876e+00 -6.385153104716740913e-01 -6.043635308382468985e-01 2.116941884988867706e-01 -4.252428618817362671e-01 -8.367368887481738682e-01 -1.353562616418058084e+00 8.085908750265433098e-02 8.301725857171512457e-01 -8.095996355501776653e-01 9.556020493702200858e-01 -8.134236986509384149e-02 -6.200208037534786776e-01 -1.138946305798967495e+00 -1.296649993298963244e+00 8.102130070911874871e-01 -4.832816686731360861e-02 1.125281191969858208e+00 -4.141179770643740321e-01 2.114175616724236928e+00 -6.458881096278857870e-01 -3.458356932817831519e-01 -5.471086654986128117e-01 -2.590446303299251074e+00 7.029276771036474525e-01 -9.413498597354423569e-02 -1.205532494446774905e+00 1.584746681225876752e-01 -5.332957587139685041e-01 1.181528452215654945e-01 7.658484074172567935e-01 -6.522378043266345848e-01 1.282477146634469101e+00 -7.511520122517804099e-01 -1.232619258317645961e-01 -3.973321873855039654e-01 4.837533586520125772e-01 4.133943462562390536e-01
1.470898086564822016e+00 -9.322292771388979160e-01 -5.537340105179860972e-01 -7.988534424150489643e-01 9.747282615521353222e-01 5.422643542069405243e-01 -2.936770258891812646e-01 -6.575559302855390476e-01 -1.775286880506063092e+00 1.557717943713211595e+00 -9.493049963886731613e-01 3.666823506092971585e-01 1.272401395294233017e+00 5.641449102492276380e-01 1.728495758283387085e-01 -2.344498543953584813e-01 7.472471261177340285e-01 7.012766467369010437e-01 7.559729050817233509e-02 9.121494123522955189e-01 -1.286938791796725656e+00 -5.949186820145558885e-01 3.626603484989183168e-01 1.946692882659666557e+00 2.595578263012879305e-01 8.343396208300413175e-01 -3.200790059809472538e-02 1.028666420121292946e+00 -9.205016051553724932e-01 9.715333191990086492e-01 -2.844652207788688769e-01 -6.948380737138293295e-01 8.169157472270353881e-02 -5.362869598513787528e-01 1.863358876916817675e+00 -1.282931105595742416e+00 -4.326909280446527561e-01 1.008188819195821706e+00 2.438410344045631284e+00 -9.794878295274923596e-01 6.090901541200657299e-01 8.761123596130978575e-01 -9.333846978310995635e-01 -5.300451726084720594e-01 -2.482367895044190476e-01 5.975485474591727408e-01 -1.513030603573690680e+00 8.832599059095900262e-01 1.013754746348666025e+00 -3.344182582711366924e-01 1.532390988999734471e+00 7.337829700763832674e-01 -3.797730262361191933e-01 5.058866908931576312e-01 2.762705518578039143e-01 5.221531842168984916e-01 -1.291128525887362544e-01 -4.904877853524087228e-01 -9.905501968604882856e-01 2.641407484878778855e-01 -9.423594210407754135e-01 4.784491529176106983e-01 6.572423692815881902e-01 4.135309849586495945e-01 6.590988474794078344e-01 1.527608239042221872e-01 3.197716597999424037e-02 -6.369154576657979350e-01 1.212668941653673782e+00 -1.418359556581670233e+00 -9.922176799770543454e-01 1.505324184248787445e+00 4.749728644305593050e-01 -7.326472201820175556e-01 6.685292257512358283e-02 5.210375602921208937e-01 -1.021522743867264049e+00 -5.404225186087937560e-01 -1.201157919870189383e+00 7.947908539367284919e-02 5.190466052551988563e-01 -5.498987992524998480e-01 -2.162378885949973739e+00 -1.360763583587299985e+00 -6.586576176016677442e-01 1.042534755852294381e+00 1.616475675591163563e+00 -7.159495816010328362e-01 7.450232283569501179e-01 3.787943479914729350e-01 -1.061331382302873383e+00 6.543111070283540442e-01 -1.974544575306197980e-01 -3.977711956397832482e-01 4.195297351983034440e-01 3.066027602029588461e-01 -7.783755658578334069e-01 -7.870627756044892287e-01 -1.085486017906975187e+00 -2.749998684792981929e-01
-1.452593906654236766e-01 3.201718164430056301e-02 2.667715984783460836e-01 6.560048037478075633e-01 -1.386640828563697303e+00 1.237606796205676929e-01 -1.292432687387818913e+00 -1.367343131752260854e+00 5.301843091413554337e-02 -4.848977064485398003e-01 2.705995352667106557e-01 -6.858545033838818750e-01 6.833777399788112383e-01 -2.473659145512562552e-01 -9.891666351858000583e-01 -2.476350308463280747e+00 -5.341588632420830596e-01 1.738060416285424348e-01 2.061463507732954892e-01 -1.538504820976357879e+00 6.185805175873397843e-01 1.444357448764995944e+00 -1.551724143903412401e-01 -3.425302373666193612e-01 -1.589988832449547473e+00 1.165087808489475574e+00 1.048488516154872707e+00 -2.700218348150166814e-01 1.011969126988004758e-01 -1.046691468762494803e-01 -3.019047514697890677e-01 -1.115307675141720578e+00 -5.264445331910201364e-01 8.677962921170531141e-01 8.574267724019465353e-01 9.011626136553940736e-02 5.501928869831990837e-02 -4.798956694051864091e-01 -1.652981361740538890e+00 -4.217689086153733058e-01 -2.492539669285072090e+00 1.320367392280811902e+00 -1.916666373204228002e-01 2.933790781247109236e-01 2.972040201870587706e-01 -3.627139426001742967e-02 -1.496789000082585919e-01 -6.298238387086861900e-01 -1.702448977747187675e-01 -1.939284546718575752e+00 -2.272494407237838576e+00 1.111816652920849524e+00 4.357073823130514501e-01 -1.682665942652735280e+00 -1.088554074413377704e+00 -6.021496772507258649e-02 -6.976580716360489820e-01 -1.255436439839505480e+00 1.879867700505737371e-01 7.820001635492719594e-02 3.937046448237993546e-01 -1.013202007162392615e+00 2.232684989677154785e+00 1.033924698481176963e+00 1.779025687404648531e-02 -7.696168120692721271e-01 1.193891448098561625e+00 -2.214868718976551687e+00 4.792211499448454370e-01 3.583183296179253685e-01 -7.524373973581469643e-01 1.467654932359898412e+00 -7.325654458880110909e-01 3.351097991621888594e-01 -5.405726002240951455e-02 1.182270522705685556e+00 1.790594816374897036e+00 -4.085185820475773499e-01 -2.234817811362262985e-01 2.287502004103622699e+00 1.222757107314158542e+00 -5.979411158965756146e-01 -1.168901947165300381e+00 -5.059665150526821975e-01 -1.238114622024937272e+00 -8.805763576834212403e-01 5.158014361414494653e-01 -3.345768820683570760e-02 -1.547057355141709278e+00 -4.597025719569822755e-01 -1.003872451797038101e+00 2.258832887510350274e-01 7.388803681882223640e-02 -7.987298550258576935e-01 5.305397726114272627e-01 -7.746023704086397732e-01 -2.003026757498803434e+00 1.666618847417938865e+00 -1.623955770568558776e+00 -6.916693036804183459e-01
2.991358215270153997e-01 -1.040199280450243569e+00 -9.476667916902270505e-01 2.873391471236047545e-01 3.152310030404484875e-01 -2.292511109898685562e-01 -1.641756814945518395e+00 -1.745977662622279214e-01 -1.784367269690111169e+00 6.178473754581333965e-01 5.318908178985796154e-01 -7.018808612687943427e-01 -1.015817317355832916e+00 -6.589068569180485113e-01 1.086137359307720596e+00 -1.556359798062376898e+00 -8.491691113790236223e-01 -1.971295061577221785e-01 -4.276834480624045476e-01 -6.481966173416432442e-01 -1.184242728096244646e+00 1.129736500138046607e+00 -8.130905352469062208e-01 5.239101025334426120e-01 -1.627981459655481133e+00 5.810845802562210061e-01 -7.957334688231952891e-01 -3.945888251198717556e-01 -6.503503009521202083e-01 -2.192173245395343806e-01 2.274170767679153105e-01 -3.999313069429697443e-01 -2.261713273801384094e+00 -9.740395421739050930e-02 -1.658409417839139754e+00 -1.942727450686954072e-01 -6.251402433221727728e-01 1.613054020790523957e+00 3.467106249712039734e-01 -1.284551623205102966e-01 -1.908207095681387355e-01 -1.225831092731004768e+00 -9.048941418575474627e-01 -1.036322235621143895e+00 8.062567250017543818e-01 -9.284611976986353321e-01 9.688399612555342877e-01 7.668205673293013724e-01 -8.382095369644333438e-01 1.065621280483422390e-01 5.205883563476743081e-01 -1.148287200858952445e-01 1.331332399724091786e+00 -8.669751426500840186e-01 7.549601337551982427e-02 1.637055838746125647e-01 7.319547851784269366e-02 9.787466987154923581e-01 -3.066970450687039884e-02 -7.872612007104427823e-02 2.586959334691683599e-01 1.240802342740566111e+00 -7.304492235794373123e-01 1.119918231238745232e+00 4.060312626739458475e-01 -1.699323765046789059e-01 1.778731963214780665e+00 6.379646632925122240e-01 1.529372545886848123e+00 -1.238943923741472997e+00 1.138787371162227391e+00 -7.490967385282795155e-01 1.751870761263807919e-01 7.000574190544243125e-01 1.006585693713111684e+00 -1.676413847108704669e+00 -1.458742244778952868e+00 5.432445474107182593e-01 1.354379134860052458e+00 1.379172775406011020e+00 -3.606137109763575821e-01 2.344298385499435922e-01 -2.066675811739118740e-01 -1.103628395535292794e+00 1.757623942035810016e-01 1.635047575530763853e+00 5.588052327716741541e-01 5.025648789651147030e-01 1.390569012886474498e+00 -6.621700915330780424e-01 -9.095242577263203954e-01 -9.889201084767885730e-01 -4.171667599009570848e-01 -1.027139082662036795e+00 -5.816483158508840567e-01 4.358097232439016588e-01 2.959434331875014645e-02 -6.006505972310620667e-01 -1.581130638039960790e+00 -4.799455609762284108e-02
2.801510269664696740e+00 6.676311906153359343e-01 8.744045904226432908e-01 -5.523834009956239965e-01 -5.910353077499735930e-01 8.387994632350338486e-01 1.183898898869579774e+00 8.366892825736359507e-01 3.372757399349803342e-01 5.155190535493696657e-01 1.163985656387235279e+00 1.445427997151901012e-01 -7.694593797706593685e-01 -1.523723137077328538e-01 -1.721631531693499639e-01 -1.136125728281199398e+00 -1.051878597635464541e+00 2.008971185013373392e-02 -1.804435185684356791e+00 1.623674385580127666e+00 1.723149349607929537e+00 1.403003857904624729e-01 -7.224267242290751678e-01 1.338245239645733164e+00 -5.909514934267711128e-01 4.030877122056509831e-01 4.462452534433334894e-01 -1.118315831924667103e+00 1.518089446798994990e-01 3.064721323201269332e-01 1.207440255280121111e+00 1.066986443946316004e-01 -1.883478217570419444e+00 -1.383376575451779278e+00 -6.504798790758921090e-01 1.045672307996817318e+00 -7.707056963821511397e-01 1.688178363544660776e+00 -1.542420555134650928e-01 -4.307074938813675313e-01 1.686074723157210409e+00 1.775283017386401763e-01 -5.105613790453695788e-01 7.189017849871449650e-01 6.706042958503812823e-01 -2.247957476650228603e-01 -6.532926870892512561e-01 1.363054149238940305e+00 -5.321918222391634756e-02 7.732250493016978865e-01 1.933674281248451310e+00 -3.582362504778801027e-01 1.652543858430332024e+00 2.622621117444833838e-01 7.471595691923175186e-01 -2.397774962781622499e-01 1.021873682655936033e+00 1.214309081947891888e+00 -9.187597595392497096e-01 5.930477548199758475e-01 -2.777908581472609217e+00 3.970143863267513312e-02 6.469162900200329247e-01 5.520559781712565117e-01 -1.066619099994304154e+00 7.865547145418739783e-01 -8.645611757412716702e-01 -6.859549259886454919e-01 -1.821873506206814763e+00 -4.457000324426606958e-02 4.002299196729012798e-01 7.358477731579828873e-01 -2.899376209500156287e-01 1.816847784726817405e+00 -8.918711320904103568e-01 5.403219685351807744e-01 -2.398060057500027931e+00 -1.389296667076395930e-01 1.106058312595307180e+00 -3.410915113785368824e-01 -7.958742342578426499e-01 1.262614065556879051e-01 -7.652258661220091573e-01 -1.405897721375922726e+00 -4.729953905744222475e-01 1.035697168705637772e+00 -7.731690199274902087e-01 6.264872658913988035e-01 1.322935663303302034e+00 1.008616046783997078e+00 6.519645440002247438e-01 -1.581536571352413434e+00 -5.617876720199486140e-01 -1.545832692753379423e+00 -3.808123837049106619e-01 1.201841355012738699e+00 -1.080204048058913013e+00 -6.427653021140343759e-01 9.869260857904643691e-01 2.859697597385975953e+00
-9.707409842005159106e-01 -2.877041668686807774e-01 1.263610892878279657e-01 1.473246462987622296e+00 -2.211169153218988992e+00 7.268292784004807272e-01 9.217080683793649198e-01 -1.563153956725648497e+00 5.261075214185064741e-01 1.198893474780902801e+00 1.189167214860701760e+00 -1.054242152898829055e+00 -1.325580441082092387e+00 -7.600353271585453818e-01 -1.249361267241781093e+00 -2.157527147462047878e+00 -2.364963770863272308e-01 1.162621721787070905e+00 -5.005044907644836671e-01 -1.941163458871123737e+00 -7.354868531592326231e-02 -5.810516845383080220e-01 -6.217562089826992322e-01 1.169510701036998446e-01 -5.356688262900871633e-01 3.504262482439792770e-01 5.060643451001698434e-01 6.820837419355364473e-01 -1.190161747401296655e+00 8.746980597989327810e-01 -3.524191720682648410e-01 7.561366041682919814e-01 1.330574403006871576e+00 -2.145147868150374532e-02 -5.115788700012796619e-01 -1.662231781349996051e+00 -1.891392698702605846e-01 -1.733982613737007128e+00 5.644033435241979646e-01 1.430954685775405411e+00 2.905929997753960992e-01 -2.701212900790816440e-01 6.011139231629555324e-01 1.279635669245574148e+00 -1.041852461041622657e+00 -5.588718083871124787e-01 4.425147638320814369e-01 6.912204156582871795e-01 -2.557498031480922585e-01 -7.729798833132875968e-01 -1.316318375175344002e+00 1.332283693715353434e-01 1.492406182460144504e-01 -3.026315673221059432e-01 2.097388250060131520e-01 1.936420059222385026e+00 -4.547086241455598060e-02 -1.364741318795535951e-01 -3.601071591834892338e-01 9.528736446152289430e-01 1.024841129836298270e+00 -6.439232080846879480e-01 7.457351217948495758e-01 -6.006143626450921591e-01 1.289961687799807466e+00 -2.559310742144656370e+00 -1.539422308126446426e+00 -1.454224008310204819e-01 -1.388452914474330058e+00 -6.070321257570097107e-01 1.450158508753735864e+00 7.223648730293242837e-01 1.723840427485228144e+00 9.458356123984149599e-01 -9.169043120568195482e-01 3.600782332882302428e-01 1.608026986050076212e-01 -4.429364984354822177e-02 2.997717306896176659e+00 -2.491316660860448007e+00 7.878573458605909741e-01 2.459997384356855221e+00 -1.271496945668608269e+00 -8.357825263591099896e-01 7.710714345176032936e-01 -1.008769902697999488e+00 -4.147497735743059799e-01 -2.166276988330168018e-02 1.736609123316745551e+00 -1.513084810499376875e-01 -2.866406279554217229e-01 1.292198441569777922e-01 -4.094853345245669241e-01 9.116463100650741280e-01 6.551792787960615261e-01 1.229584263458299187e+00 8.403981548170391669e-01 -1.018852135606646891e+00 6.934935388882682572e-01 1.177452175642673016e+00
-3.640673195096110204e-01 4.710391276829714036e-01 1.660232667718658517e-02 7.238938730671778954e-01 8.759075606015050974e-01 2.366222824070819963e-01 1.088827292308644168e+00 4.125939445151883822e-01 -3.029685575697628752e-01 -7.374401672483089643e-01 1.358753145682736863e+00 -3.556692614566452360e-01 1.272962283451289922e+00 9.907792180080078337e-01 5.096853960248345361e-01 2.489983787473485644e-01 1.619736965813808993e+00 -4.794700007044201961e-01 1.570736099480882220e-01 1.336607072759420367e+00 -1.757618717080392745e+00 -1.012858895928447245e+00 6.536395258159469757e-01 -1.903704439791652714e+00 8.502058848055789042e-01 -1.165875299615793725e+00 7.086220456434078052e-01 1.433250314208746046e-01 9.552416227953504091e-01 -1.014719585001212954e+00 -1.103407958810104894e+00 3.063224322303079172e-01 -1.204266132657308419e-01 -1.052124070194557559e+00 -1.207896906440852902e+00 3.935162741271010511e-01 1.226130642350111932e+00 4.164800966597588805e-01 1.438475437908609267e-01 9.845165875844317238e-01 -1.326005518614927325e+00 1.840641366117549693e-01 1.491965261047809799e+00 1.482256127011380320e+00 6.064439791651329292e-01 9.263106840280703469e-02 1.382771263712866405e+00 1.450805700728932335e+00 -3.867958064040233346e-02 -2.093953918786277957e-01 -3.433570670755616838e-01 6.931274033342070817e-01 1.482579690133385641e+00 -1.814753094419610191e+00 -7.480651842783899719e-01 -4.369590305186094037e-01 4.424122017488993919e-01 -2.307049778915665483e-01 7.264341133213411128e-01 3.581218901267610999e-01 -5.004750154750021718e-01 -1.033281320070570164e+00 -5.524197915249203783e-01 -1.345143580660723259e+00 3.405661999452272992e-01 1.308528974819294088e+00 2.101239784760890128e+00 8.662943252496831947e-01 3.930157086130400268e-01 -3.718507457857538334e-01 -2.203037549345030044e+00 -1.581061420031233622e+00 1.288916555790972973e+00 2.981156756083191084e+00 -9.563492015813355174e-01 1.436084474480799233e+00 -5.792517606949491027e-01 -7.256350253113873494e-01 -4.938246168633925737e-01 1.127507446440600303e+00 3.802427099051217674e-01 -7.476505158297918063e-01 -4.455918426956239631e-01 1.963286968008441935e-01 1.011287778741235766e+00 4.441433035181291955e-01 1.057236417472896317e+00 1.038333861922668827e-01 -8.565325839948171316e-01 1.310055015534517642e+00 -2.159384144316677662e-02 -2.969543900276419568e-01 1.356834005115831188e+00 -2.257834667143688301e-01 1.752602099411253223e+00 3.447305703075702610e-01 9.843007553879064009e-01 -3.810850881019085534e-01 3.937500570970078329e-01 -7.309362280014171098e-01
-1.089815427688924032e+00 4.389749496766007786e-01 -2.420294931042864750e+00 -8.137567951893117657e-01 2.205840004890892381e+00 -4.115227517506613308e-01 1.248895070956361625e-01 -6.964333336861375789e-01 -6.854011254852513391e-01 1.824374332592884063e+00 -3.325590223586967764e-01 -1.394809041000943106e-01 -9.494749388117741384e-01 -2.113786957218778406e-01 -1.142408876206304935e+00 5.471579432373409047e-01 3.031658553866231065e-01 2.120348321007781145e-01 -2.283306985360547436e+00 4.647346341439451689e-01 3.537653596175030501e-01 -7.390422525456781244e-01 5.360523868289641669e-01 1.179655581920513452e+00 1.036532901040053911e+00 -1.382293000012535744e+00 5.748081107985836269e-01 2.331859302799483835e+00 -1.648445252495258639e-01 -1.545312358944509024e+00 5.285097221602337303e-01 5.381287531280779524e-01 -7.526077245752381406e-02 4.641483014613286273e-01 2.437489344205647224e-01 -6.865472311444009712e-01 -1.016211937491792616e+00 -1.349642497785801698e+00 1.156591754216320878e+00 -1.450602288589770916e+00 1.786563943792833342e+00 1.521044124020791977e-01 3.143291177742151277e-01 -1.178829056222191918e+00 -1.229987752697752290e+00 1.072959236450222065e+00 -1.114946042162053175e+00 -3.440476957931999369e-01 -1.464994027160113343e-01 2.539527911598166376e+00 8.977470030807725987e-01 -1.075488364733130642e-01 1.687012503936870411e+00 -7.544189381418535401e-02 -1.819547662388194098e+00 -3.006968797808111660e-01 -3.360048754342091493e-01 2.064551730839868871e+00 -3.547031895292358517e-01 -3.628098060659893515e-02 1.051105562452895770e+00 7.682976211104086683e-01 -9.954139149035920453e-02 -1.516360689019211616e-01 -2.850102791179505712e-01 9.741707805068663961e-02 -2.705037278604630613e-01 2.867201678318706648e+00 -4.689083664744947977e-01 5.074945143525791957e-01 5.388605229195976287e-01 8.762139728323257160e-01 5.192273527185412713e-02 -8.318043767977342240e-01 1.256038545540662854e+00 -1.452223026370675019e+00 -3.400959003279768189e-01 -6.757349384471420528e-01 -9.532539777581974239e-01 -2.780283603484007493e+00 2.533811214270080825e+00 -3.395566457397342086e-01 -9.340620225477848093e-01 -2.803981249620371430e-01 -1.833578271710176288e+00 -9.260501944971858412e-01 -1.045169999612520106e+00 1.476749136151004060e-01 1.597200083149576733e+00 2.091042562418909512e+00 -3.459450119981202776e-01 -2.112326653021381784e+00 -5.995432569204475204e-01 8.321453966922706669e-02 -1.671292958006099560e+00 3.192141204268950094e-01 4.388742409401927974e-02 2.669724975070813522e-01 -3.927798890395620690e-01 1.137392120792652062e+00
2.429176125783303331e+00 -5.039995400212816667e-01 -1.174202753606944150e+00 5.534392792868164657e-01 8.036218401335262218e-01 -8.264480695084336359e-01 -3.644793792979665603e-02 8.686064113935173525e-01 8.936708052362785093e-01 -3.973396595662974651e-01 -1.959161445602398688e+00 -2.828342193260365289e-01 7.478579720320718827e-02 1.675081504656263487e+00 -7.009092450675499242e-01 -6.753356258264270329e-02 -4.797731597312631102e-01 -1.366102753441458706e+00 -3.370759419885706043e-01 2.754455899002327124e-01 6.795072650355686861e-01 -7.283724798724491301e-01 -3.073126529429758280e-01 7.188974612163544498e-01 5.304617036429012250e-02 1.086686097715556576e+00 3.874997708500289850e-02 1.934729153906775023e+00 1.602854658910056518e+00 8.586353530206940476e-01 -1.438877484257967465e+00 -7.263365703402304696e-01 -1.815109466891041912e+00 3.298056017317574362e-01 9.941017454823298793e-01 1.545327004485943068e+00 7.276351281724869891e-01 3.066483370920275800e-02 8.993229487402439049e-02 1.183739664022357641e+00 7.798512376076781605e-01 1.621498356902579818e-01 -7.762182009340431454e-01 -2.873035783664087406e-01 -3.322944417275922047e-01 1.226896558890221700e-01 -1.820006110298688085e-01 6.426944388808232267e-01 -1.596590228801578970e+00 2.456673263835833954e+00 6.163659069500458942e-01 -1.917555406582331923e+00 3.008829287717175172e-01 1.810063970640639619e+00 1.421840398991454091e+00 7.005458247337877919e-01 3.298668694542921664e-01 -1.675628853695438236e+00 7.603246391800813075e-01 -5.134606057154149361e-02 -1.541035208852503668e+00 6.136248621310703699e-01 3.735472206497414405e-01 -1.045997967247936922e+00 -1.461690394356426115e+00 1.029442079627111151e-01 -5.203102948213588208e-01 -1.355089807302628291e+00 1.330532947902867358e+00 -1.726422829054409025e+00 -1.619996767649488634e+00 -4.621006729657224366e-01 9.838297222563735511e-01 1.317404205211261337e+00 9.740202006960814451e-02 1.876642396746543984e-01 9.424442260570944363e-01 1.091893688234748083e+00 9.629797688163119762e-01 -8.823175458716667197e-02 2.690191545528223038e+00 7.486297498272526107e-02 -9.131014822052480051e-01 -1.199382409640183278e+00 4.214394055266950101e-01 1.133234351844683685e+00 -1.705475808176178498e+00 1.300489619223096582e+00 -2.884252758172828113e+00 -1.177406720706912546e+00 -1.146791175239264549e+00 -9.181342238663178223e-01 8.038240398317619828e-02 3.528922133041429432e-01 -9.971375053871184280e-02 -3.990521491450662595e-01 -2.056804812738487476e-01 -1.071040301383162419e+00 -1.881226662884735445e-01 -6.467994310192399787e-01
-3.636405336814020894e-01 -1.453968883734086059e+00 1.023567976620193498e+00 1.567937858983039945e+00 7.807591899910902855e-01 7.371117679299818981e-01 -6.959374903898848386e-01 -2.131960869027574312e-02 6.525003206580940462e-01 -6.108619831140680301e-01 -1.987998080147286517e+00 1.615623332099998422e+00 -6.540942054885402479e-01 6.892255709413411813e-01 2.827188567063292357e-01 6.279892866945512298e-01 8.850623925592989143e-04 8.509765241808579794e-02 8.538374609182272090e-01 -3.363393195890816978e-01 -7.321984453463611375e-01 -6.162814107559422272e-01 -4.663147852056875875e-01 1.236661854603407829e+00 -1.724851086841295178e+00 -8.195564421986722969e-01 -1.325604716956356510e+00 -5.431163182936415978e-01 -2.260064518609343487e-01 1.170351731328480138e+00 -7.225424148861488982e-01 1.013999678334358417e-01 -2.023856033258877862e-01 -1.394240268526123483e-01 -8.092820637151346697e-01 3.325932845223052992e-01 1.764714128151788630e-01 9.885434606911628341e-01 -1.235595739499420587e+00 1.905176788397823007e+00 -6.071852874801923587e-03 1.020679664652335061e+00 -6.479480590144278684e-01 -6.259850110859231931e-01 4.211989811494205038e-01 1.616676366202871140e+00 -1.047944187387846560e+00 2.562084159905548275e-01 -2.304363338299448394e+00 2.935953742013251433e-01 -1.504937192764793430e+00 -8.598921791516594970e-02 -9.185245795558304449e-01 -1.395070652339728268e-01 5.769948841733304468e-01 5.921395171890572184e-01 1.438194553291548550e+00 2.515846827595029644e-01 2.422953377343620152e-01 -4.557571451088014980e-01 -1.287986098456368467e+00 1.286149328924713453e+00 -1.223564202547744673e+00 -5.276375917807458737e-01 1.177813205951320885e+00 5.782205277845288149e-01 1.364119470825231051e-01 6.904100982709450163e-01 1.226621695345105234e+00 -1.172717311391335393e+00 -7.455286594488335083e-01 -5.054631322550647184e-03 -1.383760485793533168e-01 -4.234195973231569265e-01 1.226213911545123381e+00 -6.320857827263115514e-01 1.338100189489912939e+00 -5.084810277240601195e-01 -8.309712396775366383e-03 -1.344398632549293371e+00 1.164404021589786176e+00 1.278455697679245162e+00 5.513514942656657647e-01 1.199790194316448622e+00 -3.776289423160720804e-01 5.140255550225483194e-01 1.316185054797016418e+00 -2.540127212132435641e+00 4.957579891124238025e-01 -6.455768333876613640e-01 1.361469815795867365e-02 -1.460154768698908256e+00 4.127780377390679045e-01 1.759184258872198078e-02 -9.948158781553457786e-01 -1.085546052549970275e+00 -2.554388605410791158e-01 -5.000112983627890140e-01 -1.158390185691719365e+00 -2.457173354052284708e-01
-4.405414662961911199e-01 -5.091494812003547477e-01 -4.463067844716013810e-01 4.215444531377421367e-01 -8.293110050836008940e-01 -2.317306709313444180e-01 4.789728115843596701e-01 -1.522232022646763161e+00 -1.100334142157402439e+00 1.850853152873321861e-01 1.180948978250929426e-01 -3.659258631238731518e-01 4.228841276523891968e-01 -1.906604545214005131e-01 -4.327521841156806715e-01 -6.199694049627494374e-01 -3.882552615817748687e-01 2.984362696294716177e-01 4.200371638236726213e-01 2.417490369725556476e-01 2.687008811492757054e-01 1.732405612025861741e+00 6.405862726422544284e-01 -1.628996882168308957e+00 -1.267561550696567063e-01 5.182527373935842396e-01 -2.431131969604970688e+00 1.091124378533459671e+00 -6.886877914766101338e-02 1.328418292128765943e+00 1.052915627492332362e+00 1.983008286889137661e+00 -8.340830235166529771e-01 -6.317412935577885191e-01 -6.477051585984882065e-01 5.700359761926825364e-01 -2.215297207083388287e+00 7.533813681022103470e-01 2.116902198202570418e-01 1.117000439172041615e+00 -2.493885875062613888e-01 3.559915181050954391e-01 -4.546006125006916143e-01 2.490597286812690214e-02 1.336188896944991988e+00 -7.640401962048908313e-01 8.743546685091276860e-01 4.863244646809830596e-01 2.203736135906810001e-01 8.311864390288725701e-01 -2.421448125476598712e+00 2.971197571521048686e-01 -5.471141803416652571e-01 1.702995374790650107e+00 8.489902437964274018e-01 5.044667168032813676e-01 6.624287484136228699e-01 -7.313998135039765369e-01 1.360624185847866929e+00 -2.386079906206088452e+00 -1.104796145188715384e+00 -7.131859989871187633e-01 7.251107446355939956e-01 2.772606459421917080e+00 -4.742643091184381432e-01 -9.827242010528797200e-01 7.487160303608900724e-01 1.754563635008423494e+00 -9.122727332424311886e-01 3.866696706351683277e-01 1.247122777990782305e-01 -3.816675139913164871e-01 -6.403246162704782085e-01 -6.230221812921229452e-01 -1.217543096674423841e+00 -2.667610401617265037e+00 2.795706834587905476e-01 -2.958595075695755749e+00 -3.370374467472331825e-01 -5.526788485158679043e-01 -1.828745137227807405e+00 -6.417620701141671380e-02 -2.474595706978480081e+00 5.529702642324935136e-01 -1.189256237193780263e+00 -1.153709926151487153e+00 -4.513603608405292733e-01 7.251729653240187590e-01 8.879453050782770696e-02 -6.168849263858122711e-01 1.820263265489931559e+00 1.475875389095020029e+00 -2.552484960351743548e-01 -1.732315306029090785e-01 -1.199024030585937040e-01 -3.177228322069994976e-02 7.960237186395179299e-01 -5.930825198783515884e-01 7.697730868102354851e-01 -7.638202669129791345e-02
-1.295272251091445614e+00 -1.312951112125286368e+00 1.748801482932194062e-02 5.643505239169247512e-01 7.260062989750231122e-01 9.956200352354777072e-01 -1.211510545551471862e+00 -5.570321306663906791e-01 1.223300712065062745e+00 -2.017913934234786488e+00 5.082031707014188493e-01 7.919732324690738068e-01 -1.247053563786208574e+00 4.007392807531200418e-01 9.432727175807630315e-01 -3.724558169278374131e-01 -6.173559105620859411e-01 7.982920641869225564e-01 -6.513196028585611641e-01 -7.985473338709886404e-01 1.271872970186021190e+00 -3.535210034237413201e-01 -8.150603032249091606e-03 2.312114702146114975e-01 1.263834986261260118e+00 -5.923368931997470277e-01 2.383203064873120336e-01 1.868555858914438261e-01 -3.222026436982978748e-01 2.524889917550205976e-01 1.004556894611726481e+00 -1.147699683690709183e+00 -1.233031853839534620e-01 -5.110079339393593933e-01 5.727037817722875623e-02 -1.370788984689561563e+00 -1.078490984936872010e+00 -1.560177650103808100e-01 -5.860348275074095392e-01 -7.941539714638014280e-02 1.441114150224088661e-02 -7.807957765275634898e-01 8.565740202102982703e-01 4.848393845100044119e-01 -2.366233193956812988e-02 -7.925497177248895797e-01 1.531223000041276983e+00 7.323833854712131775e-01 -5.929232283347803945e-01 1.288241758754212540e+00 1.009019904684957725e+00 -1.898961656078136606e+00 -2.873850847017045407e-01 1.040163447455443313e+00 -4.453333552308046395e-01 1.353716780989819846e+00 -1.013073013403732903e+00 -1.040597019915816324e+00 4.970800753045272885e-02 -2.556766257806919018e+00 -1.040367375806615868e+00 -1.282745353352794659e-01 1.081308222922725271e-01 3.003677992344335745e-01 -6.107452842430775020e-01 9.370250082765606559e-01 -1.085842905485481458e+00 -5.415252384259311436e-01 4.155621709858599022e-01 6.281571212918281022e-01 3.661054371135626373e-01 9.615378573403550455e-02 1.947070161127280319e-02 -3.012565993606424741e-01 -1.200218457265369715e-01 -1.163330070436314090e+00 -1.984024254001016604e-02 -1.038185877566734083e+00 -2.395146050255048675e-01 4.393488814153942990e-01 3.792773960601628080e-01 -5.813738916636560505e-01 6.100712459831867385e-01 -1.045295709456500743e+00 -8.512521437098448038e-03 2.466838811197215597e-01 1.206836802613548976e+00 5.046323298063891682e-01 4.031869037717284998e-01 -9.737379709294077257e-01 -1.898893099905245352e+00 1.232045370543777274e-01 -1.091890842125741612e+00 -1.019907517713151579e+00 -3.450120773678053143e-01 5.752765651736808650e-01 -1.057695170358559533e+00 -3.734762447722775325e-01 6.587586421329386654e-01 -6.689633275735836770e-01
